{"sizes":[784,150,10],"layers":[[{},{},{},{},{},{},{},{},{},{},{},{},{},{},{},{},{},{},{},{},{},{},{},{},{},{},{},{},{},{},{},{},{},{},{},{},{},{},{},{},{},{},{},{},{},{},{},{},{},{},{},{},{},{},{},{},{},{},{},{},{},{},{},{},{},{},{},{},{},{},{},{},{},{},{},{},{},{},{},{},{},{},{},{},{},{},{},{},{},{},{},{},{},{},{},{},{},{},{},{},{},{},{},{},{},{},{},{},{},{},{},{},{},{},{},{},{},{},{},{},{},{},{},{},{},{},{},{},{},{},{},{},{},{},{},{},{},{},{},{},{},{},{},{},{},{},{},{},{},{},{},{},{},{},{},{},{},{},{},{},{},{},{},{},{},{},{},{},{},{},{},{},{},{},{},{},{},{},{},{},{},{},{},{},{},{},{},{},{},{},{},{},{},{},{},{},{},{},{},{},{},{},{},{},{},{},{},{},{},{},{},{},{},{},{},{},{},{},{},{},{},{},{},{},{},{},{},{},{},{},{},{},{},{},{},{},{},{},{},{},{},{},{},{},{},{},{},{},{},{},{},{},{},{},{},{},{},{},{},{},{},{},{},{},{},{},{},{},{},{},{},{},{},{},{},{},{},{},{},{},{},{},{},{},{},{},{},{},{},{},{},{},{},{},{},{},{},{},{},{},{},{},{},{},{},{},{},{},{},{},{},{},{},{},{},{},{},{},{},{},{},{},{},{},{},{},{},{},{},{},{},{},{},{},{},{},{},{},{},{},{},{},{},{},{},{},{},{},{},{},{},{},{},{},{},{},{},{},{},{},{},{},{},{},{},{},{},{},{},{},{},{},{},{},{},{},{},{},{},{},{},{},{},{},{},{},{},{},{},{},{},{},{},{},{},{},{},{},{},{},{},{},{},{},{},{},{},{},{},{},{},{},{},{},{},{},{},{},{},{},{},{},{},{},{},{},{},{},{},{},{},{},{},{},{},{},{},{},{},{},{},{},{},{},{},{},{},{},{},{},{},{},{},{},{},{},{},{},{},{},{},{},{},{},{},{},{},{},{},{},{},{},{},{},{},{},{},{},{},{},{},{},{},{},{},{},{},{},{},{},{},{},{},{},{},{},{},{},{},{},{},{},{},{},{},{},{},{},{},{},{},{},{},{},{},{},{},{},{},{},{},{},{},{},{},{},{},{},{},{},{},{},{},{},{},{},{},{},{},{},{},{},{},{},{},{},{},{},{},{},{},{},{},{},{},{},{},{},{},{},{},{},{},{},{},{},{},{},{},{},{},{},{},{},{},{},{},{},{},{},{},{},{},{},{},{},{},{},{},{},{},{},{},{},{},{},{},{},{},{},{},{},{},{},{},{},{},{},{},{},{},{},{},{},{},{},{},{},{},{},{},{},{},{},{},{},{},{},{},{},{},{},{},{},{},{},{},{},{},{},{},{},{},{},{},{},{},{},{},{},{},{},{},{},{},{},{},{},{},{},{},{},{},{},{},{},{},{},{},{},{},{},{},{},{},{},{},{},{},{},{},{},{},{},{},{},{},{},{},{},{},{},{},{},{},{},{},{},{},{},{},{},{},{},{},{},{},{},{},{},{},{},{},{},{},{},{},{},{},{},{},{},{},{},{},{},{},{},{},{},{},{},{},{},{},{},{},{},{},{},{},{},{},{},{},{},{},{},{},{},{},{},{},{},{},{},{},{},{},{},{},{},{},{},{},{},{},{},{},{},{},{},{},{},{},{},{},{},{},{},{},{},{},{}],[{"bias":0.17841705679893494,"weights":[0.0667831227183342,-0.05126523599028587,-0.13238416612148285,-0.09921346604824066,-0.0074692219495773315,-0.14248126745224,-0.13458354771137238,0.16735748946666718,-0.15925580263137817,-0.10842839628458023,0.0791817456483841,-0.012714195065200329,-0.08265645056962967,-0.18906940519809723,0.17624562978744507,0.1478481888771057,0.1983226239681244,-0.14771708846092224,0.020334068685770035,-0.12383849173784256,0.05592098832130432,0.12685629725456238,-0.1130552664399147,0.07555309683084488,-0.09426132589578629,-0.1626082956790924,-0.07646183669567108,0.030618563294410706,0.08580663055181503,-0.00604403717443347,-0.1754022240638733,0.15895549952983856,-0.008905383758246899,0.1957663744688034,0.03533811867237091,0.028120897710323334,-0.19913211464881897,-0.10144101828336716,-0.028713226318359375,0.12211639434099197,-0.1359451562166214,-0.0955766960978508,-0.12522810697555542,0.09983554482460022,-0.1311861276626587,-0.09248947352170944,-0.06339100748300552,-0.14346717298030853,0.08560212701559067,-0.019817929714918137,-0.09239432960748672,0.1860162615776062,-0.19163987040519714,-0.13154835999011993,0.1689397692680359,0.13862104713916779,0.12351236492395401,-0.11344904452562332,0.12757593393325806,0.14357134699821472,0.1693945825099945,-0.0584307461977005,0.14152900874614716,-0.13429714739322662,0.05150333791971207,-0.18925531208515167,0.17096032202243805,-0.11076629161834717,0.09692396223545074,-0.1493162363767624,0.018804144114255905,0.016784021630883217,-0.041844647377729416,0.16258417069911957,0.06465889513492584,-0.013558256439864635,0.1138983964920044,-0.07787245512008667,-0.04599148407578468,-0.12551331520080566,-0.023449648171663284,-0.030223073437809944,0.10991672426462173,0.058146193623542786,0.01861538365483284,0.09036410599946976,-0.19293774664402008,-0.09825501590967178,-0.052405208349227905,0.16214413940906525,0.06683807820081711,0.10080486536026001,0.07342810183763504,0.094978466629982,0.09930946677923203,0.09523092210292816,0.12597686052322388,-0.03438330069184303,-0.01810348592698574,-0.13114547729492188,-0.1407715082168579,0.13854950666427612,-0.16968967020511627,0.060622699558734894,0.1387166678905487,0.18544308841228485,0.17487619817256927,-0.03331765532493591,0.03622598946094513,-0.11694417893886566,0.04087945073843002,-0.13099829852581024,-0.12271077185869217,-0.10095266997814178,0.05874093249440193,-0.03033137507736683,-0.024435898289084435,0.10987634211778641,-0.10153090208768845,0.08973854780197144,-0.12591101229190826,0.08344417065382004,-0.007685018237680197,-0.17464949190616608,-0.026842981576919556,-0.0758834108710289,-0.0027512293308973312,-0.05055471509695053,-0.15722882747650146,0.036299001425504684,-0.17114117741584778,-0.13989949226379395,-0.06636108458042145,0.13098634779453278,0.09304236620664597,-0.027819190174341202,-0.1483723521232605,0.121123768389225,0.020882291719317436,0.15390771627426147,0.1561053991317749,-0.06108253821730614,-0.06302204728126526,-0.17971518635749817,0.04415944218635559,0.04668581113219261,-0.17636257410049438,-0.17511409521102905,-0.009083569049835205,0.15447601675987244,-0.018542572855949402,0.07233791798353195,0.09486284106969833,-0.15195998549461365,-0.04691360890865326,0.02312302030622959,-0.1403367519378662,-0.04910317435860634,0.20733347535133362,-0.04808405786752701,0.19970060884952545,-0.10644298791885376,0.26568353176116943,-0.02297787182033062,-0.03562518581748009,-0.12116687744855881,-0.10742843896150589,0.13135308027267456,-0.168291375041008,-0.15542598068714142,0.031340960413217545,0.12371260672807693,-0.0011626582127064466,0.009428916499018669,-0.07747352123260498,-0.17512524127960205,0.11200743913650513,0.14577101171016693,0.13005027174949646,-0.034936562180519104,-0.14846457540988922,0.12802962958812714,0.09647927433252335,0.03403386473655701,0.11687882989645004,-0.1489887535572052,-0.1676902323961258,-0.13737547397613525,0.08908100426197052,0.0980021059513092,-0.019176244735717773,0.046160489320755005,0.07159716635942459,-0.0020026678685098886,0.14821819961071014,0.11485081911087036,-0.060671787708997726,-0.16934864223003387,-0.006023856345564127,0.04583553224802017,0.11877882480621338,0.11670246720314026,0.15651243925094604,-0.15059542655944824,0.08163318783044815,0.006912574637681246,0.1647588461637497,-0.19015200436115265,0.003639725735411048,-0.14513324201107025,0.13367591798305511,-0.14964687824249268,-0.07183291018009186,0.06881958246231079,0.07952360808849335,0.13929499685764313,-0.07562068104743958,-0.0899275615811348,-0.07070744782686234,0.022042499855160713,0.07730434834957123,0.17719829082489014,0.10855484753847122,0.18523335456848145,-0.019474156200885773,-0.09766560792922974,0.107761912047863,0.15765494108200073,-0.003667624434456229,0.03855077177286148,-0.15840451419353485,0.13859353959560394,0.03309089317917824,-0.053277961909770966,-0.03649928420782089,0.1922709196805954,-0.053607452660799026,0.10221598297357559,-0.004222740884870291,0.1230928972363472,-0.2050296664237976,0.08189710974693298,-0.22384943068027496,0.11616230756044388,-0.06503235548734665,-0.06627553701400757,-0.14614738523960114,0.12282903492450714,-0.03851455822587013,0.11867282539606094,0.024755265563726425,-0.07602366805076599,-0.03160649910569191,0.10238837450742722,0.19662553071975708,-0.0635567381978035,-0.04027659073472023,0.00984240509569645,0.10765144973993301,0.045864466577768326,-0.030956130474805832,-0.1930590122938156,0.1618800014257431,0.02432277984917164,-0.13112713396549225,0.24427205324172974,0.06530507653951645,-0.22108906507492065,-0.19768543541431427,-0.20216326415538788,0.02716614119708538,0.054587021470069885,-0.18133340775966644,-0.21949417889118195,0.009678415954113007,-0.0735066682100296,-0.17827370762825012,0.13742254674434662,-0.008613662794232368,0.11873351782560349,0.051299478858709335,0.03904416039586067,-0.12997235357761383,0.19133970141410828,0.061933692544698715,-0.1475561261177063,0.127099871635437,0.1793496310710907,0.036880381405353546,0.19025570154190063,-0.004078252706676722,0.33715105056762695,0.2269466370344162,0.034360866993665695,-0.15651075541973114,-0.039954327046871185,-0.21748587489128113,-0.12374696880578995,-0.15680120885372162,-0.22701652348041534,0.06861799210309982,0.010517382062971592,-0.0216810442507267,0.07536265254020691,-0.011825468391180038,0.01666884310543537,-0.14297369122505188,0.06570005416870117,0.1414269655942917,-0.07070292532444,-0.13346248865127563,-0.048082493245601654,-0.006114930845797062,0.05497823655605316,0.046560145914554596,-0.09236161410808563,0.17509262263774872,0.2191811352968216,0.11312845349311829,0.11727189272642136,0.27300095558166504,-0.20324264466762543,-0.07642976939678192,-0.2350279539823532,-0.1403760313987732,-0.19408392906188965,-0.018407324329018593,-0.21969039738178253,0.03840387240052223,0.09029628336429596,-0.059130243957042694,-0.20745109021663666,0.05463794618844986,-0.01625046692788601,-0.12639671564102173,-0.15684178471565247,0.09910991042852402,-0.09522681683301926,-0.12676455080509186,0.18028070032596588,0.002367940964177251,0.13448359072208405,-0.1043904721736908,0.24954324960708618,-0.1297093778848648,0.06336627900600433,0.002562156645581126,0.1271161586046219,-0.13274961709976196,-0.17509213089942932,-0.14728090167045593,-0.22840550541877747,-0.005762000102549791,0.05303595960140228,-0.00631241500377655,-0.19138671457767487,0.1587151288986206,-0.09058738499879837,0.06800777465105057,0.16803759336471558,-0.08985736966133118,0.1422739326953888,-0.1059798002243042,0.036047909408807755,-0.14610087871551514,-0.13094913959503174,-0.15451379120349884,-0.0063950903713703156,0.176275834441185,-0.14660108089447021,0.14333154261112213,0.16200287640094757,0.08563028275966644,0.11252182722091675,0.3764275312423706,0.2083289623260498,-0.10555502772331238,-0.11421125382184982,-0.26638615131378174,-0.10001958161592484,-0.0825711265206337,-0.19035400450229645,0.03916560485959053,0.13004304468631744,0.08482123166322708,0.11340779066085815,0.028184639289975166,-0.05954061076045036,0.14234742522239685,0.11847617477178574,0.1359228789806366,0.1030086949467659,0.03095238283276558,0.05179104581475258,0.1421976089477539,0.05877502262592316,-0.10992154479026794,-0.022361621260643005,0.13479185104370117,0.2242087870836258,-0.11460570991039276,-0.027951955795288086,0.30926835536956787,-0.04945480078458786,-0.13182474672794342,0.04017343744635582,-0.2664051055908203,-0.2722052335739136,0.0400250218808651,0.0981665849685669,0.10450387001037598,-0.06041369214653969,-0.017617998644709587,0.19574694335460663,0.129282146692276,-0.18005222082138062,0.014491276815533638,0.18337851762771606,0.028242407366633415,0.16979925334453583,0.023001477122306824,-0.10039465874433517,-0.08950334042310715,-0.06420999020338058,0.034073762595653534,0.20574477314949036,-0.10496196150779724,0.053341466933488846,0.2422131448984146,0.2976119816303253,0.14379943907260895,-0.06469468027353287,-0.17121067643165588,0.015072072856128216,-0.02002897672355175,-0.05357099696993828,0.1185840368270874,-0.09082537889480591,0.187681183218956,0.109750896692276,0.1029701977968216,0.11065620183944702,0.040081385523080826,0.022027330473065376,-0.09015561640262604,0.10167806595563889,-0.11363037675619125,-0.10997224599123001,0.07448557019233704,0.04711918905377388,0.0719415694475174,0.15931063890457153,0.003361627459526062,0.13389216363430023,0.13462451100349426,0.14429689943790436,0.31802698969841003,0.16145288944244385,-0.06900903582572937,0.09225155413150787,-0.2447478324174881,-0.10936418175697327,-0.24646863341331482,-0.006415797397494316,-0.09822777658700943,0.08977619558572769,0.14774444699287415,0.1533317267894745,-0.09692377597093582,0.18624888360500336,-0.07415319234132767,0.19049333035945892,-0.1974559873342514,0.03516802936792374,0.10409744083881378,-0.060052916407585144,0.1511705219745636,-0.08522310853004456,0.111054427921772,-0.027051487937569618,0.16399885714054108,-0.2065584510564804,0.14059412479400635,0.1931324303150177,-0.07743652164936066,-0.07100377231836319,-0.006380750332027674,0.05583500117063522,0.10241035372018814,-0.21245746314525604,0.12426547706127167,0.15989702939987183,-0.06525137275457382,0.15443027019500732,-0.04522578790783882,0.19643503427505493,-0.05539971590042114,0.13220681250095367,0.17629633843898773,0.04191019758582115,0.007715288084000349,0.023880071938037872,0.1505085527896881,-0.016989516094326973,-0.14373765885829926,0.07395920902490616,-0.07588662207126617,-0.04010458290576935,0.1048082709312439,0.17074131965637207,-0.05668625235557556,0.1157917007803917,0.12417519837617874,0.12328130751848221,-0.22461465001106262,-0.03363005071878433,-0.20391476154327393,-0.10074839740991592,-0.21730706095695496,-0.11844125390052795,-0.04493991285562515,0.09293264150619507,-0.027107568457722664,0.004151639062911272,-0.16155506670475006,-0.13716024160385132,-0.09896595031023026,-0.13993489742279053,-0.025208033621311188,0.13941964507102966,0.13719460368156433,-0.10507134348154068,-0.02739574760198593,-0.07732080668210983,0.12119444459676743,-0.10159742087125778,0.07266153395175934,-0.0899801030755043,-0.08160199970006943,0.11586419492959976,0.08776489645242691,-0.0864802673459053,-0.012841039337217808,-0.055516134947538376,-0.1230870708823204,-0.059401676058769226,0.1402176022529602,0.06484942883253098,-0.08779283612966537,0.2000359147787094,0.24000945687294006,-0.14635390043258667,-0.1918734908103943,0.04949627071619034,0.010874086059629917,0.012293853797018528,0.15626837313175201,-0.08598141372203827,0.14046011865139008,-0.16318348050117493,0.12509751319885254,0.047001808881759644,-0.10354745388031006,-0.17329664528369904,0.04945627227425575,0.032385822385549545,0.11778024584054947,0.07936663925647736,0.17045898735523224,-0.012726426124572754,-0.0716395378112793,0.1757056564092636,-0.14742644131183624,-0.05961588770151138,-0.17302531003952026,0.14242024719715118,-0.1623859852552414,-0.04477854445576668,-0.1797521412372589,-0.2127632349729538,0.05375693738460541,0.12476445734500885,-0.10192938894033432,0.10228674113750458,0.12680356204509735,0.17661108076572418,0.03768758848309517,0.022097013890743256,-0.17016029357910156,0.13919149339199066,-0.09025172144174576,0.08841098845005035,-0.015827683731913567,0.13620012998580933,-0.19644741714000702,-0.056127823889255524,0.12121739238500595,-0.09855510294437408,0.025723880156874657,0.20916466414928436,0.013746927492320538,-0.11103830486536026,-0.05787975341081619,0.12737612426280975,-0.15190041065216064,0.1910303682088852,0.01594756357371807,0.0907658115029335,-0.05683468282222748,-0.21019499003887177,-0.1552710086107254,0.04479063302278519,0.15460914373397827,0.14544302225112915,-0.032046206295490265,0.06681304425001144,0.11933556199073792,-0.04312143102288246,0.09531790763139725,0.13213764131069183,-0.020656555891036987,-0.1086777001619339,-0.055390357971191406,-0.11919618397951126,0.07825610041618347,0.14935573935508728,-0.15869823098182678,-0.1437281370162964,-0.07622097432613373,0.16756851971149445,0.2536928653717041,0.19501237571239471,0.1118440106511116,0.059826284646987915,-0.060066044330596924,0.11518263071775436,0.058673229068517685,-0.19028544425964355,-0.16520804166793823,0.15260447561740875,0.04646890610456467,-0.0436553955078125,-0.17950035631656647,0.1293443739414215,0.14389662444591522,0.03974039852619171,0.09280743449926376,0.13307830691337585,-0.09035688638687134,0.14220745861530304,0.0820956751704216,-0.15933866798877716,0.14298628270626068,-0.026098236441612244,-0.024125050753355026,-0.1390978991985321,-0.08682101964950562,-0.12733900547027588,-0.10561906546354294,-0.17702162265777588,-0.019135158509016037,-0.15284626185894012,0.13357238471508026,0.02666405774652958,0.09493480622768402,-0.029666034504771233,-0.1909530907869339,-0.12995155155658722,0.13685154914855957,-0.0483599416911602,-0.0518127977848053,-0.04494112357497215,-0.1762286126613617,-0.1323670744895935,0.1526709496974945,0.05922029912471771,-0.20167894661426544,0.01528782770037651,0.1202172338962555,0.0023850516881793737,0.09295152127742767,0.11198799312114716,-0.10522942990064621,0.0767500177025795,-0.10238029062747955,0.07134553045034409,0.14302143454551697,-0.08572456240653992,-0.1916012316942215,0.09933768957853317,0.12675505876541138,-0.07370805740356445,-0.10563065111637115,-0.020751196891069412,0.030101491138339043,0.0861504003405571,0.17039212584495544,-0.10197761654853821,0.1647607982158661,0.091551274061203,-0.19620560109615326,0.12448780238628387,0.009557785466313362,-0.051203638315200806,0.17435862123966217,-0.1220766231417656,-0.19951412081718445,-0.047150708734989166,-0.156044602394104,-0.017225472256541252,-0.15015515685081482,-0.07003380358219147,-0.03600495681166649,-0.07187946140766144,-0.12570130825042725,-0.14533977210521698,0.17603765428066254,-0.019063428044319153,0.07559388130903244,0.05246560275554657,0.15132924914360046,0.165358304977417,0.11605866998434067,0.08596356213092804,0.01567244343459606,-0.1346786916255951,0.05528821796178818,-0.16929833590984344,-0.15667901933193207,0.15245600044727325,0.11217723786830902,-0.15271173417568207,-0.016756262630224228,0.11556368321180344,-0.06935661286115646,0.023948758840560913,-0.09984137862920761,0.03299529850482941,0.1370314210653305,-0.1525801122188568,0.16810008883476257,-0.08070117235183716,0.10148755460977554,0.07270778715610504,-0.00832919217646122,-0.026075154542922974,0.0029541482217609882,-0.18834902346134186,0.18044961988925934,0.039035189896821976,-0.12130759656429291,-0.13207480311393738,0.15770745277404785,0.17415332794189453,0.17053478956222534,-0.0100655322894454,-0.13058672845363617,0.1631271243095398,0.04725247994065285,-0.018480824306607246,-0.1704607456922531,0.08720899373292923,-0.039154697209596634,0.1371525675058365,-0.08237830549478531,0.08552785962820053,-0.050940901041030884,0.09552736580371857,0.01431838609278202,0.10235004127025604,0.16134339570999146,0.07119083404541016,-0.04269808530807495,0.07037080079317093,0.09531312435865402,-0.08591737598180771,0.11728564649820328,-0.1726347655057907,-0.044826045632362366,-0.09759677946567535,-0.13346529006958008,0.03747548907995224,0.19022303819656372,-0.02091659978032112]},{"bias":0.03020153008401394,"weights":[-0.19192859530448914,-0.03167404606938362,0.03159055486321449,-0.12834925949573517,-0.02672596648335457,-0.0011917002266272902,-0.05878084525465965,-0.09900958836078644,0.17882069945335388,0.1606685370206833,-0.09880054742097855,0.05357503890991211,-0.06159469112753868,0.03612381964921951,-0.0715072825551033,0.17646704614162445,-0.19713322818279266,0.19821949303150177,-0.12623801827430725,0.004523054230958223,-0.12682926654815674,-0.11362277716398239,0.03149764612317085,0.16073423624038696,-0.18251879513263702,-0.03889143094420433,-0.19640009105205536,-0.08783172816038132,-0.08631248027086258,-0.07123816758394241,-0.13992908596992493,0.14836238324642181,-0.146820068359375,-0.08730074018239975,-0.18195536732673645,-0.1260594129562378,0.1068543866276741,-0.09710533171892166,0.09110045433044434,-0.10144833475351334,-0.06788326054811478,-0.08669701218605042,0.09740779548883438,-0.06482798606157303,0.16859380900859833,-0.04651477560400963,-0.13289667665958405,-0.1512448638677597,0.1464383602142334,-0.1252179592847824,-0.13838352262973785,-0.035794202238321304,-0.14460328221321106,0.07733192294836044,-0.10028211027383804,-0.10174494981765747,0.06756637990474701,-0.04491176828742027,-0.08639886230230331,0.18312864005565643,0.1516387164592743,-0.17524923384189606,-0.052919499576091766,0.07385826110839844,0.13269758224487305,-0.03993930295109749,-0.08777265250682831,0.16580873727798462,0.03939247876405716,-0.15176266431808472,0.19057580828666687,-0.03782796114683151,-0.1419065147638321,0.06116320937871933,-0.15036557614803314,0.051539402455091476,-0.012841379269957542,0.056663528084754944,-0.1489417850971222,-0.18138383328914642,0.15834444761276245,0.1398366093635559,-0.15471133589744568,-0.12247829884290695,-0.11032132804393768,0.1421734243631363,0.031247828155755997,0.031175510957837105,0.04534991458058357,0.07645057141780853,-0.0027134099509567022,0.00422249548137188,-0.03273129463195801,0.1313459277153015,0.00010045922681456432,0.15597699582576752,0.15213951468467712,-0.10379303991794586,-0.05155305191874504,0.17596986889839172,0.18136170506477356,-0.05165541544556618,-0.11777243763208389,0.041931767016649246,0.027123156934976578,0.14968396723270416,-0.14511753618717194,0.13186754286289215,-0.19629263877868652,-0.040538184344768524,-0.06991862505674362,-0.054717425256967545,-0.16453589498996735,0.07849063724279404,-0.013546382077038288,0.03736352548003197,0.02222573198378086,0.02374267764389515,-0.14742666482925415,0.12186435610055923,0.07898566871881485,-0.06331048905849457,-0.15039078891277313,-0.0446220301091671,0.03707752004265785,-0.07886840403079987,0.16803285479545593,0.13966764509677887,-0.017777783796191216,-0.24711616337299347,-0.29032281041145325,-0.0043612257577478886,-0.03100883588194847,0.19634254276752472,-0.030112676322460175,-0.11611182987689972,-0.0026297697331756353,0.06462644785642624,-0.06290075927972794,-0.028883859515190125,0.09668920189142227,0.02440931275486946,-0.1474779099225998,0.11706173419952393,-0.1308710128068924,-0.024931129068136215,-0.15163862705230713,-0.18838545680046082,0.012101199477910995,-0.08099216222763062,-0.18933211266994476,-0.138932466506958,-0.032789502292871475,-0.02129274047911167,-0.08155711740255356,0.1899765431880951,0.04744790121912956,0.0714697539806366,-0.051501840353012085,-0.11838368326425552,0.01227510441094637,0.01310809887945652,0.22442930936813354,0.034741733223199844,0.04999657720327377,0.11797189712524414,0.05742374062538147,0.07760366797447205,-0.057946763932704926,-0.11150704324245453,-0.017987532541155815,0.10501746833324432,0.14288179576396942,-0.1688728928565979,0.0683465227484703,0.14850738644599915,-0.14555495977401733,-0.12023552507162094,0.01673820987343788,-0.18667593598365784,-0.03717239201068878,0.15041020512580872,-0.1243409663438797,0.09463873505592346,0.053750645369291306,-0.029668036848306656,-0.1694885641336441,-0.06719804555177689,-0.179507777094841,0.15598416328430176,0.15442286431789398,0.15051156282424927,0.06474379450082779,0.0223986953496933,0.15226157009601593,-0.03670712187886238,-0.08558512479066849,0.024717168882489204,0.08848758786916733,0.09813931584358215,-0.1510753333568573,-0.14189358055591583,0.019694769755005836,-0.11709675937891006,0.11634502559900284,-0.05129334703087807,-0.09825658053159714,-0.09231729060411453,0.14226505160331726,-0.026960372924804688,-0.19082877039909363,-0.11367577314376831,0.015369299799203873,0.14957746863365173,0.16545115411281586,0.18244674801826477,0.05001017451286316,-0.046209584921598434,0.03449057415127754,0.20450840890407562,0.2375723123550415,0.0905984416604042,-0.07841780036687851,-0.0008597021806053817,0.15017779171466827,0.11461245268583298,-0.0867612212896347,0.1102755144238472,0.06823654472827911,-0.06566973030567169,-0.1449480801820755,-0.10218509286642075,0.15267570316791534,-0.08152635395526886,0.055596429854631424,-0.06817204505205154,0.049625106155872345,0.16882269084453583,0.060221850872039795,0.16363286972045898,0.06650843471288681,-0.17204532027244568,0.035195671021938324,-0.05801096931099892,0.1963552087545395,0.09161239117383957,-0.13492050766944885,0.07113254815340042,0.20585283637046814,-0.021970316767692566,0.07271609455347061,0.024151725694537163,0.08075349777936935,-0.18668101727962494,-0.03972436487674713,-0.20579473674297333,-0.14780357480049133,-0.14515836536884308,0.005861174780875444,0.11176804453134537,0.25934770703315735,0.046577345579862595,0.19637969136238098,-0.06799175590276718,0.2488442063331604,-0.02599450573325157,-0.13408856093883514,0.057207558304071426,-0.2708008885383606,0.20291677117347717,-0.09910987317562103,0.13689176738262177,0.15496376156806946,0.1285889595746994,-0.0907457023859024,-0.0007677783723920584,0.17156004905700684,-0.04271324351429939,-0.12695233523845673,-0.029167599976062775,-0.08657536655664444,-0.017590263858437538,0.11802636086940765,0.057536039501428604,-0.13541626930236816,-0.03196347504854202,-0.10104774683713913,0.1862790733575821,0.19885045289993286,0.25935882329940796,-0.12844903767108917,-0.04808604344725609,-0.022048886865377426,0.13855308294296265,0.017515823245048523,0.018273619934916496,-0.1291307806968689,-0.04929225519299507,0.09288087487220764,-0.09458483010530472,-0.22054490447044373,-0.17874038219451904,-0.09811550378799438,0.003680614987388253,-0.0729542002081871,-0.15569104254245758,-0.14396436512470245,0.09965817630290985,-0.1525455266237259,0.13045275211334229,-0.00859233271330595,0.1908072531223297,-0.17116804420948029,-0.09178437292575836,0.015360286459326744,0.12294384837150574,-0.018117273226380348,-0.14098870754241943,0.12835067510604858,-0.1522253453731537,0.16258397698402405,0.157305508852005,-0.20562481880187988,0.019026491791009903,0.01687980629503727,-0.11810491234064102,0.10646236687898636,0.060607969760894775,0.08770010620355606,0.02454257197678089,-0.22939540445804596,-0.12985675036907196,-0.10706670582294464,0.08623790740966797,0.16762129962444305,-0.08667344599962234,-0.19029581546783447,-0.16272543370723724,0.1951923817396164,-0.12360192835330963,0.0487317256629467,0.08908748626708984,0.1343446969985962,0.04468941688537598,-0.20098069310188293,-0.033499110490083694,0.10696902871131897,-0.08306079357862473,-0.034706953912973404,0.10167080163955688,0.18402667343616486,-0.05197007581591606,0.1102110743522644,-0.03410652279853821,0.04682719707489014,0.1759401112794876,-0.039878807961940765,0.11648093163967133,-0.08518268913030624,-0.09555251151323318,-0.041200120002031326,0.15431292355060577,-0.04941985756158829,-0.18976624310016632,0.1046406552195549,0.17502108216285706,-0.17392122745513916,0.1732594072818756,-0.14945654571056366,-0.002570956479758024,0.0765027105808258,0.06970532238483429,-0.21726498007774353,-0.09529407322406769,-0.262982577085495,-0.1320829689502716,0.05803234875202179,-0.12712541222572327,0.017812592908740044,-0.16248653829097748,0.10048782825469971,0.026279447600245476,-0.010043593123555183,-0.12187565863132477,-0.05026305466890335,-0.146207794547081,0.002764584729447961,-0.019318977370858192,-0.18862195312976837,-0.19562974572181702,-0.04951692745089531,-0.09172267466783524,-0.032073818147182465,0.15887416899204254,0.12637382745742798,0.17809027433395386,0.170481339097023,-0.20764483511447906,0.008821824565529823,0.10076181590557098,0.1073288768529892,-0.0762467309832573,0.0650254413485527,0.15622490644454956,0.030373111367225647,0.11065953224897385,0.05190853402018547,0.05132829025387764,0.11284752935171127,-0.15581654012203217,0.058125920593738556,-0.0008805344114080071,-0.17163768410682678,-0.07575561851263046,-0.06881314516067505,-0.12911538779735565,0.05207051709294319,-0.17490559816360474,-0.10965128242969513,0.03350008279085159,-0.05091853439807892,0.1753227412700653,0.03688989579677582,-0.023790467530488968,0.0585145428776741,-0.19021955132484436,-0.047072239220142365,-0.2131025195121765,-0.03874915465712547,-0.05131528899073601,0.14159703254699707,-0.1255338340997696,0.06269070506095886,-0.18250001966953278,-0.1041378527879715,0.058609284460544586,-0.20883576571941376,-0.030754277482628822,-0.1908678114414215,-0.25985220074653625,-0.20754359662532806,-0.18632440268993378,-0.1723436862230301,-0.04962647333741188,0.002508252626284957,-0.16737081110477448,0.08653902262449265,-0.027964172884821892,0.024847904220223427,0.12031422555446625,0.08813047409057617,0.009138690307736397,0.04409314692020416,0.02362089231610298,0.023157622665166855,-0.1613144874572754,-0.2516838312149048,0.02751792222261429,-0.1706475019454956,-0.059928834438323975,0.1407620757818222,-0.02992752566933632,0.009530727751553059,-0.14219187200069427,-0.007984211668372154,-0.1591992825269699,0.06481683999300003,-0.24133889377117157,0.11342699080705643,-0.11005014181137085,-0.005373254418373108,-0.08803962171077728,-0.1145826205611229,0.09363458305597305,0.1622525006532669,0.02924603410065174,0.18131940066814423,0.18003971874713898,-0.1626826822757721,-0.09947104007005692,-0.06635569781064987,0.009105091914534569,0.15185518562793732,0.12457538396120071,-0.0937863439321518,0.09488903731107712,0.18225368857383728,0.09879811853170395,0.012904766947031021,0.08926498889923096,-0.05568837746977806,-0.183274507522583,0.06129385530948639,-0.151964470744133,0.07297323644161224,-0.01617174595594406,-0.029021121561527252,-0.011063698679208755,0.17505814135074615,0.05020490661263466,-0.19975703954696655,0.17717045545578003,0.09317151457071304,-0.13351576030254364,-0.027547264471650124,-0.09657549858093262,-0.0844826027750969,-0.09575861692428589,0.06705436110496521,-0.20033812522888184,0.04166243225336075,-0.08450834453105927,0.14292839169502258,-0.07470408082008362,-0.1425309181213379,-0.07059276849031448,0.2682598829269409,0.05288717523217201,-0.16087637841701508,-0.1593991070985794,-0.10045982152223587,-0.032474152743816376,-0.14620564877986908,-0.10102932900190353,0.14298167824745178,0.03861142322421074,0.16316725313663483,-0.06689184904098511,0.010665778070688248,0.0750577375292778,-0.002972301794216037,-0.03514038398861885,-0.10628403723239899,-0.19012011587619781,-0.0008920401451177895,-0.07483319193124771,-0.06900861114263535,0.14611952006816864,0.025156907737255096,0.0871884673833847,0.12047340720891953,0.19927538931369781,0.09346663951873779,0.24340222775936127,0.21335448324680328,-0.13737228512763977,0.15818458795547485,0.0479741171002388,0.06722956150770187,0.17865130305290222,0.08370747417211533,0.15178345143795013,0.12158848345279694,0.2199827879667282,-0.027764497324824333,0.11143479496240616,-0.11207642406225204,-0.15216708183288574,0.057379793375730515,-0.04342427849769592,0.19391952455043793,0.1207534447312355,0.1338041126728058,-0.17756061255931854,-0.0985281839966774,-0.09869468957185745,-0.027240097522735596,0.10904253274202347,-0.07111676782369614,0.0650365799665451,0.10167651623487473,-0.11053252965211868,-0.1266874521970749,0.07220660895109177,0.08838558197021484,0.12414025515317917,0.0535954125225544,-0.04589271545410156,0.06941431015729904,0.08028089255094528,0.05332895740866661,-0.02271650731563568,-0.18073435127735138,-0.06531830132007599,0.16693580150604248,0.0038387682288885117,0.14529262483119965,0.13516414165496826,-0.16147494316101074,0.15306515991687775,-0.04181009903550148,0.1713259369134903,0.04523688927292824,0.15315240621566772,0.03337635099887848,0.029945706948637962,0.13791300356388092,-0.03245474398136139,0.03633465617895126,-0.1889185905456543,0.00421298248693347,0.03130725026130676,-0.18742896616458893,0.220169335603714,0.030797723680734634,0.06159934028983116,-0.2084393948316574,-0.0008924464345909655,0.08747699856758118,-0.14101271331310272,-0.08782459795475006,-0.17572683095932007,-0.017544560134410858,-0.0265039149671793,0.057249102741479874,-0.06461569666862488,-0.10521198064088821,0.19230340421199799,-0.14667823910713196,0.11670741438865662,-0.04624018445611,0.07892990857362747,-0.1944478154182434,0.18226176500320435,0.04358959197998047,-0.16318379342556,-0.1424044370651245,-0.06365153193473816,0.17138533294200897,0.20379593968391418,-0.17864367365837097,0.04481618106365204,-0.15748293697834015,0.051510315388441086,-0.02279255911707878,0.12597501277923584,0.03612711653113365,-0.08966591209173203,0.14312414824962616,-0.1234164610505104,-0.08959082514047623,0.15424123406410217,0.14308831095695496,-0.0239629615098238,0.028368627652525902,0.1865614503622055,-0.13795331120491028,-0.12813475728034973,0.05435695871710777,-0.08920607715845108,0.1497138887643814,0.013478447683155537,-0.08143062889575958,-0.06628983467817307,0.041083019226789474,-0.044200051575899124,0.250903844833374,0.047239258885383606,0.06942753493785858,-0.08957358449697495,-0.10867349803447723,0.10388432443141937,0.14975352585315704,-0.2014591097831726,-0.15699636936187744,0.15384133160114288,-0.06730710715055466,0.1790255606174469,0.18343445658683777,-0.014705637469887733,0.13387714326381683,-0.0733465701341629,-0.05012231692671776,-0.0010093000018969178,-0.0440971739590168,0.08262207359075546,-0.15869659185409546,-0.0074025411158800125,-0.13762475550174713,-0.09491066634654999,0.02478053607046604,-0.1250738799571991,-0.1363878846168518,-0.18308424949645996,0.0383799746632576,-0.14902161061763763,0.18680429458618164,-0.008931968361139297,0.039004065096378326,0.03734787926077843,0.13899138569831848,-0.21434038877487183,0.1393398940563202,0.11007530987262726,0.07985583692789078,-0.13592307269573212,0.10931402444839478,0.10514021664857864,0.15690526366233826,0.10486893355846405,-0.04522370174527168,0.018692024052143097,0.0350971445441246,-0.03126328065991402,0.04870767518877983,-0.19462843239307404,0.15476737916469574,0.15524861216545105,-0.11690393835306168,0.09712180495262146,-0.009263886138796806,0.026003161445260048,-0.011610300280153751,-0.09506204724311829,0.05658261105418205,-0.010144336149096489,-0.062437549233436584,0.01483206357806921,-0.004823113325983286,-0.04634954780340195,-0.007783161010593176,0.1100323423743248,-0.023821240290999413,0.029225070029497147,-0.1686202585697174,0.1978956013917923,-0.03687131404876709,0.024219995364546776,0.14213377237319946,0.07703875750303268,0.07190588861703873,0.10353481024503708,0.009723834693431854,-0.19532828032970428,-0.09656725078821182,-0.13370659947395325,-0.0894307941198349,-0.06471110135316849,-0.15569373965263367,0.12451855093240738,0.0347670242190361,0.024109477177262306,-0.11327659338712692,0.14061854779720306,0.19547055661678314,-0.014177613891661167,-0.009196621365845203,0.1660134345293045,0.11595077812671661,-0.04720238968729973,-0.03291136026382446,-0.10928329825401306,-0.01654309593141079,0.0973072499036789,0.024441668763756752,0.0891881063580513,0.02640860714018345,0.0612654946744442,0.07597072422504425,-0.10990013182163239,-0.026667170226573944,-0.02373380772769451,-0.14073866605758667,-0.08227109909057617,-0.1918817013502121,0.10642077773809433,0.03742540627717972,-0.15469706058502197,0.14213460683822632,0.02104041911661625,0.08471763879060745,0.19857273995876312,-0.006898267660290003,-0.17703942954540253,-0.19925051927566528,0.11935196816921234,0.0062362817116081715,0.1094166561961174,0.14488323032855988,0.15403422713279724,-0.08554384857416153,-0.10441538691520691,0.19720938801765442,-0.0003946429642383009]},{"bias":-0.17825205624103546,"weights":[-0.005083180032670498,-0.03209531679749489,0.026598669588565826,-0.038106221705675125,0.15339981019496918,-0.15029780566692352,0.18301811814308167,0.06783896684646606,-0.03225626051425934,-0.0017277362057939172,0.15481413900852203,0.04347052797675133,-0.02699560672044754,-0.1310405284166336,-0.017230642959475517,-0.03550323471426964,0.16868862509727478,-0.15513265132904053,0.1929326057434082,-0.19224387407302856,0.11380797624588013,-0.11065931618213654,0.040015190839767456,-0.18881957232952118,0.0029751835390925407,0.03254318609833717,0.021046094596385956,-0.009067755192518234,-0.04988476634025574,-0.049118589609861374,0.05555141717195511,0.09747102111577988,-0.011699466966092587,0.06871607154607773,0.09486998617649078,0.13334843516349792,-0.06401914358139038,-0.1235475242137909,-0.120540551841259,-0.1395479142665863,0.19545945525169373,-0.13438238203525543,0.16088445484638214,0.020081058144569397,0.1243862435221672,0.04225311055779457,-0.14772088825702667,-0.16263967752456665,-0.07158678025007248,-0.05477075278759003,0.17593856155872345,-0.049147140234708786,0.02156558632850647,0.14818988740444183,-0.1895597279071808,-0.18315249681472778,0.1470520943403244,0.0861469954252243,0.002653069794178009,-0.09373724460601807,0.07940137386322021,0.0594983734190464,0.015102558769285679,0.10758867114782333,0.0758480578660965,-0.07162794470787048,0.05088934674859047,0.025274906307458878,0.11826600879430771,0.1466592699289322,-0.005030634813010693,0.1822870820760727,-0.10074008256196976,0.08722157031297684,0.15150269865989685,-0.17300450801849365,-0.01969011500477791,-0.08124833554029465,-0.1811552345752716,0.13582675158977509,0.19232875108718872,0.06514046341180801,0.08310293406248093,-0.16360148787498474,-0.1579952836036682,-0.1796058714389801,0.13574546575546265,-0.10034919530153275,0.02154375985264778,-0.033634383231401443,-0.011618934571743011,-0.13312777876853943,-0.008447336964309216,-0.021913543343544006,-0.03620705381035805,0.1795845776796341,0.009308024309575558,-0.13512519001960754,-0.04187943786382675,0.06911952048540115,-0.07044301927089691,-0.11023657023906708,0.18053974211215973,0.1106104627251625,0.01807512156665325,0.004100046120584011,-0.14609187841415405,0.15488474071025848,0.08850052207708359,-0.1404084861278534,0.016152529045939445,0.015581471845507622,-0.13285435736179352,0.18479081988334656,0.008882681839168072,0.19167101383209229,0.04025617986917496,0.03414759039878845,-0.16862449049949646,0.10110074281692505,0.14353853464126587,0.05598147213459015,-0.017253348603844643,-0.10316961258649826,-0.15087489783763885,-0.056867197155952454,-0.026047902181744576,0.014733298681676388,-0.04969261586666107,0.09818673133850098,-0.08663246780633926,-0.12465175986289978,-0.030754175037145615,0.17814777791500092,-0.03959912061691284,0.07165918499231339,0.02907564863562584,-0.18230251967906952,0.06460772454738617,-0.1941097378730774,0.1839350461959839,-0.08847662806510925,0.05074825510382652,-0.14172597229480743,0.06669598072767258,0.09396698325872421,0.21359412372112274,-0.036438778042793274,0.21993790566921234,0.07317203283309937,-0.05301789939403534,-0.04247816652059555,-0.08166583627462387,0.05561712011694908,-0.03721310570836067,0.01139399129897356,0.21702252328395844,0.12591448426246643,0.005948940292000771,0.03235666826367378,-0.05219212919473648,-0.14998680353164673,-0.12122835218906403,-0.16637352108955383,-0.021288728341460228,0.15613406896591187,0.19796830415725708,-0.0068128383718431,0.1598680168390274,0.12035218626260757,0.13081975281238556,-0.07946023344993591,-0.10692816972732544,-0.09105438739061356,-0.0650329440832138,0.17428408563137054,0.23170731961727142,-0.05723392590880394,0.052711017429828644,0.19211088120937347,0.0280557032674551,-0.08598600327968597,0.1235760897397995,0.250995010137558,0.1881263703107834,0.17194141447544098,-0.1917112171649933,-0.18726995587348938,-0.11274193227291107,-0.16724544763565063,-0.03384021669626236,0.03511876240372658,0.056237127631902695,-0.008559230715036392,-0.09396696090698242,0.03520844876766205,-0.0384344719350338,-0.07681695371866226,0.021221129223704338,-0.07335944473743439,0.15974710881710052,0.12505465745925903,0.07966189086437225,-0.14682288467884064,0.19568882882595062,-0.1790088713169098,0.019936291500926018,0.2013094425201416,-0.19836270809173584,-0.08500856906175613,0.2642226219177246,0.1420387476682663,0.12628129124641418,0.0020532943308353424,0.14988704025745392,-0.1339053213596344,-0.17076727747917175,0.016930783167481422,-0.17779061198234558,0.05824318900704384,0.10457341372966766,0.1495973765850067,0.06626859307289124,-0.09614385664463043,-0.03603799268603325,0.04022382199764252,-0.019826781004667282,-0.16654503345489502,0.16990700364112854,-0.05889185145497322,-0.10188411176204681,-0.002493123756721616,0.08139850199222565,0.006143390201032162,-0.009163647890090942,0.12484395503997803,-0.07135047018527985,0.2557435631752014,0.2459377646446228,0.024830302223563194,-0.028004920110106468,0.18568621575832367,0.06577529013156891,0.049553513526916504,-0.033220868557691574,-0.10632410645484924,0.10663918405771255,0.12032005935907364,-0.06374505907297134,-0.10396608710289001,0.17397870123386383,-0.00763127114623785,0.04516024887561798,-0.07654468715190887,0.07551238685846329,0.1894713193178177,-0.08882257342338562,-0.1850333958864212,0.17493703961372375,0.01635166071355343,-0.07607217133045197,-0.1597164422273636,-0.15778714418411255,0.17095014452934265,0.006681196857243776,-0.042384590953588486,0.045828379690647125,-0.06524332612752914,-0.14353810250759125,-0.11011973768472672,0.1611161082983017,0.00346630671992898,0.17679665982723236,0.08144328743219376,0.1630619615316391,0.10775440186262131,-0.17663894593715668,-0.08104845136404037,-0.10007083415985107,-0.019321680068969727,-0.07341407984495163,-0.06861034780740738,-0.16489088535308838,0.11982686072587967,-0.12988333404064178,0.12053201347589493,-0.03837998956441879,-0.1802234649658203,-0.1370224952697754,-0.020214831456542015,-0.2035921961069107,-0.16071756184101105,-0.08848188817501068,-0.02712886594235897,0.1584809273481369,-0.005526659544557333,0.01638024114072323,-0.057596128433942795,-0.1683078110218048,-0.07907431572675705,-0.21555407345294952,0.05387868359684944,-0.0067988126538693905,0.09804344922304153,0.11912204325199127,0.16700027883052826,-0.02578118070960045,-0.1943386346101761,0.05474371090531349,0.0492500439286232,0.049026377499103546,0.0623684898018837,-0.11945126950740814,-0.18090616166591644,0.13656799495220184,0.02971232868731022,0.1326931267976761,0.03999172896146774,-0.11087754368782043,-0.17196853458881378,-0.03296683356165886,0.10553029179573059,-0.13294969499111176,-0.0290500707924366,0.002725801197811961,0.034215688705444336,-0.06304848939180374,0.056518472731113434,0.11455312371253967,0.09870254248380661,0.12875054776668549,0.19253818690776825,0.18863971531391144,-0.04441668838262558,0.15600784122943878,0.10294295847415924,0.03191593661904335,0.04044317081570625,0.07972119748592377,-0.20320825278759003,-0.12111512571573257,0.10842078179121017,0.20185486972332,0.1674925982952118,0.04727493226528168,-0.21946266293525696,0.02422245778143406,-0.11725674569606781,0.012456713244318962,0.05429938808083534,0.06475823372602463,0.03223371133208275,0.125575453042984,0.11111680418252945,0.2427726536989212,0.17434638738632202,0.03305419906973839,0.05133013427257538,0.12085337936878204,0.22244074940681458,-0.03772532567381859,0.06076383590698242,0.08994615823030472,0.09880493581295013,-0.10008758306503296,-0.07127609848976135,-0.0449945442378521,-0.044789161533117294,-0.09639587998390198,-0.028629792854189873,0.042650431394577026,-0.06482189148664474,-0.13028429448604584,0.0842396691441536,-0.014718376100063324,-0.13174664974212646,-0.0838618353009224,-0.028243664652109146,0.05531705543398857,0.09615419805049896,-0.12313868850469589,-0.06372664123773575,0.20994028449058533,0.04674069210886955,-0.2096065878868103,-0.11733964830636978,-0.13652457296848297,-0.1670532077550888,-0.14882777631282806,-0.004436220973730087,0.07885926961898804,-0.1518969088792801,-0.12960436940193176,-0.09296081215143204,-0.17237026989459991,-0.1470964550971985,0.028575103729963303,-0.08265853673219681,0.09264673292636871,0.02192886918783188,-0.11597635596990585,0.17924749851226807,0.17956507205963135,0.1703665852546692,0.1777709275484085,0.05139569565653801,-0.024415122345089912,0.028394265100359917,-0.11308746039867401,0.1232057735323906,0.22090372443199158,-0.16793487966060638,0.17688433825969696,0.028601154685020447,0.17324164509773254,-0.024819595739245415,-0.01832486316561699,0.17171542346477509,-0.04233618080615997,-0.11645572632551193,-0.028391970321536064,-0.13272897899150848,-0.07536882907152176,0.10344213247299194,0.1141631230711937,0.18224602937698364,0.01761835254728794,-0.2070048749446869,0.06319833546876907,0.03704523295164108,-0.10216762125492096,-0.035970818251371384,-0.24269555509090424,-0.15757010877132416,-0.038724541664123535,0.09957100450992584,-0.11867932975292206,-0.14424243569374084,0.1478600800037384,0.017225487157702446,0.16309231519699097,0.16879087686538696,0.10186457633972168,-0.08434461057186127,-0.09505700320005417,0.019959278404712677,-0.15731826424598694,-0.15923917293548584,0.0813865065574646,0.14946849644184113,0.08519791811704636,0.15912097692489624,0.031771235167980194,-0.09250202775001526,-0.15026184916496277,-0.058304641395807266,-0.04638442024588585,-0.17605705559253693,0.14555944502353668,-0.15434327721595764,-0.023124011233448982,-0.24709394574165344,-0.1821516901254654,-0.16610702872276306,0.06549849361181259,0.08367637544870377,-0.07156119495630264,0.1497815102338791,-0.017288902774453163,0.15289273858070374,-0.1443999856710434,0.11664561182260513,0.1990400105714798,0.15954194962978363,0.1544865220785141,-0.13097919523715973,-0.05088326707482338,0.06051735207438469,-0.02160884067416191,-0.14680445194244385,0.11198925971984863,-0.08288028836250305,-0.14784082770347595,-0.2452249526977539,-0.014449212700128555,0.06647075712680817,-0.11057420819997787,0.10711759328842163,0.04762599989771843,-0.2618614733219147,-0.03436613082885742,0.09604966640472412,0.0356917567551136,0.20852933824062347,0.011873041279613972,-0.0770697072148323,-0.09818609058856964,-0.004519117064774036,0.21579067409038544,0.22421105206012726,-0.052852850407361984,0.08966623991727829,-0.033540889620780945,0.11874590069055557,-0.167771115899086,0.0462772510945797,0.0605732798576355,-0.013653582893311977,0.03495766595005989,-0.0474112294614315,0.06911233812570572,-0.12646707892417908,0.037298548966646194,0.07774624973535538,0.17119579017162323,-0.023057427257299423,0.060848694294691086,-0.1519448161125183,-0.0523219108581543,-0.009447957389056683,-0.08825159817934036,-0.0750008150935173,0.004162380937486887,-0.01773030310869217,-0.09159503877162933,-0.11655642092227936,0.03055459074676037,0.05610969290137291,0.11700363457202911,0.055594947189092636,0.15937647223472595,-0.12973907589912415,0.08987810462713242,0.04676647484302521,-0.00010375263082096353,0.1235581636428833,-0.11483173817396164,0.2284437119960785,0.23296479880809784,-0.032837968319654465,0.16128027439117432,-0.07593490183353424,-0.051107071340084076,-0.12402792274951935,-0.05682344734668732,-0.1007685735821724,0.07827834039926529,-0.11108753085136414,0.08718951791524887,0.20332494378089905,0.0889003798365593,0.1539764106273651,0.1267663985490799,0.20941728353500366,0.17635293304920197,0.05276324599981308,0.109048992395401,-0.1390920877456665,-0.016464969143271446,0.15324868261814117,0.035451412200927734,0.019677970558404922,0.16965657472610474,0.08213029056787491,0.1641802340745926,0.23875458538532257,0.0777602419257164,-0.058046918362379074,0.1184883862733841,0.04836328700184822,0.01433214545249939,-0.1001952514052391,0.12525177001953125,0.13324809074401855,0.24686050415039062,0.08661770075559616,0.10365986824035645,0.08985205739736557,-0.15037837624549866,0.08268154412508011,0.2246655821800232,-0.05551915615797043,-0.13710527122020721,-0.1132194995880127,-0.16988390684127808,0.01350950077176094,0.08311209082603455,0.11701278388500214,0.037694353610277176,-0.042164552956819534,0.17236997187137604,0.12431894987821579,0.10731761902570724,0.05377090722322464,-0.08559105545282364,0.08372345566749573,0.14007256925106049,-0.15299823880195618,0.12033259868621826,-0.07276090234518051,0.10210931301116943,0.047340087592601776,0.14350555837154388,0.15482507646083832,-0.00724404351785779,0.021991917863488197,0.1768294721841812,-0.1394978165626526,0.05912289023399353,-0.15191052854061127,-0.0062387678772211075,0.14717447757720947,0.09353562444448471,-0.05165180191397667,0.152537539601326,0.0898888111114502,0.010491459630429745,0.0245320163667202,0.13830509781837463,0.1640084683895111,-0.004795469343662262,0.04087714105844498,0.19430337846279144,0.1252996325492859,0.15143172442913055,0.08889799565076828,0.22168108820915222,-0.02969788946211338,0.02376192808151245,-0.008325392380356789,-0.15272364020347595,-0.12577272951602936,-0.11275742202997208,0.16810598969459534,0.09208260476589203,0.04827532544732094,0.05015558376908302,0.12602554261684418,-0.13322773575782776,-0.17735370993614197,0.02635405957698822,-0.028821637853980064,-0.05592598393559456,0.1628519892692566,-0.018105661496520042,-0.1743188053369522,-0.09208697825670242,-0.060512475669384,-0.016669193282723427,0.1502036601305008,0.1030980795621872,0.06631104648113251,-0.041837938129901886,0.07787982374429703,0.016423076391220093,0.02816382236778736,0.03083200752735138,0.1735101342201233,0.15636630356311798,-0.11165090650320053,-0.14243614673614502,0.04867437481880188,-0.05044514685869217,0.027066102251410484,0.13505619764328003,-0.1643383502960205,0.19373929500579834,-0.10287317633628845,0.1963178515434265,-0.03332921490073204,0.05569654330611229,-0.0020800724159926176,0.15085545182228088,-0.021684745326638222,0.12955118715763092,-0.040364742279052734,-0.031159408390522003,-0.02725519798696041,-0.17206989228725433,0.12181570380926132,-0.11214558035135269,0.11345482617616653,0.14432258903980255,0.06934787333011627,0.1730199009180069,0.17799216508865356,0.05980466306209564,0.1411474496126175,-0.06082654744386673,0.07122036814689636,-0.004407135769724846,0.000010036150342784822,-0.12832725048065186,0.029360337182879448,0.12064094841480255,0.07920874655246735,0.02111630141735077,0.05432732775807381,-0.14097627997398376,0.12071391195058823,-0.08925534784793854,-0.166537344455719,0.07583136111497879,0.042943090200424194,0.165887251496315,0.03261793032288551,0.05593644455075264,-0.09275589883327484,0.04392357915639877,0.06920276582241058,0.21333086490631104,-0.013687582686543465,-0.009194470010697842,-0.1629715859889984,-0.15833739936351776,-0.10017984360456467,0.05142002925276756,0.17995600402355194,-0.1327073723077774,0.04494355991482735,-0.034408971667289734,0.013788449577987194,-0.08705078810453415,-0.12161364406347275,-0.12430737912654877,-0.12566779553890228,0.16092105209827423,-0.16583219170570374,-0.15425673127174377,0.09135349839925766,0.14113982021808624,-0.025232402607798576,0.13885273039340973,-0.07443442195653915,-0.10584400594234467,0.15615873038768768,0.17600679397583008,0.0019589634612202644,-0.07350656390190125,-0.17043831944465637,-0.14713460206985474,-0.10854550451040268,-0.05251150205731392,0.09418263286352158,-0.13114893436431885,-0.02850211411714554,0.156430184841156,0.10843268036842346,-0.056382760405540466,0.18225441873073578,-0.06572504341602325,-0.1530502885580063,0.12125318497419357,0.15611234307289124,-0.05893910303711891,0.05027204006910324,0.026572437956929207,-0.0961015522480011,0.06381356716156006,-0.11028701066970825,0.08262444287538528,-0.1179891973733902,-0.10397770255804062,0.12579676508903503,-0.09301472455263138,-0.19780294597148895,0.10553701967000961,-0.00018417093087919056,0.03183772414922714,-0.1655965894460678,-0.045016810297966,-0.15941497683525085,0.12370435148477554,-0.010557645000517368,0.10940270870923996,-0.19486482441425323,0.1088583916425705,-0.1450885385274887,-0.033876966685056686,0.02547425590455532,-0.17476515471935272,-0.19139859080314636,-0.13059395551681519,-0.017194300889968872]},{"bias":-0.15067172050476074,"weights":[-0.06295137107372284,-0.18445095419883728,0.046748578548431396,-0.19355280697345734,-0.1485140472650528,0.16765575110912323,-0.023211205378174782,0.17876780033111572,0.13061319291591644,-0.06804730743169785,0.004241276998072863,0.10644064098596573,-0.030627815052866936,-0.19129535555839539,0.0813167542219162,0.11120574176311493,0.023526238277554512,-0.10165088623762131,0.036321669816970825,-0.08174381405115128,0.09041745215654373,0.1900007277727127,0.023295583203434944,-0.17894670367240906,0.09004879742860794,-0.1969877928495407,0.1120612844824791,0.01753155328333378,0.08583426475524902,-0.08802316337823868,0.04341695085167885,0.1525420844554901,0.03337840735912323,-0.11470817029476166,-0.050208140164613724,-0.1648629903793335,-0.01102608721703291,0.020960040390491486,0.0036557787097990513,-0.08928922563791275,0.02938930317759514,-0.18476958572864532,-0.08841302990913391,0.04457622766494751,-0.14420944452285767,0.06351837515830994,0.028916174545884132,-0.08917057514190674,-0.034922707825899124,0.026286780834197998,0.07962719351053238,0.14167380332946777,0.13234028220176697,-0.006815411616116762,-0.05027194321155548,-0.06850326061248779,0.03609712794423103,-0.10508203506469727,0.12651851773262024,-0.10902758687734604,-0.00953418854624033,0.13613246381282806,-0.05822720751166344,0.15205027163028717,-0.07915391772985458,-0.16888310015201569,-0.17055898904800415,-0.1457376331090927,0.18726496398448944,-0.10381599515676498,0.025371147319674492,0.07804915308952332,-0.051581937819719315,0.027442751452326775,-0.0855880007147789,0.14017286896705627,0.031809113919734955,0.11559411138296127,-0.0002337892074137926,0.12769998610019684,-0.032405126839876175,0.09564127773046494,0.10868800431489944,-0.19108910858631134,-0.112710140645504,-0.0698072761297226,-0.14138534665107727,-0.12322219461202621,-0.08544457703828812,-0.17545731365680695,-0.06135421246290207,-0.09792978316545486,-0.004401936661452055,-0.015787165611982346,-0.08903316408395767,0.05873555690050125,-0.05245741456747055,-0.139522522687912,-0.09275206923484802,0.06582313776016235,-0.01731228269636631,0.05977616831660271,0.0058893500827252865,0.08760619163513184,0.06120768189430237,-0.1868394911289215,0.05570300295948982,0.03476915881037712,0.15854190289974213,0.083324134349823,-0.13970620930194855,0.023007970303297043,0.015604788437485695,0.10380720347166061,-0.008555641397833824,0.12324965000152588,-0.13982945680618286,0.04200044646859169,0.03221185877919197,-0.1723218411207199,0.019575264304876328,-0.067890465259552,0.008117709308862686,0.13414379954338074,0.0700174942612648,0.0759846568107605,-0.15962232649326324,-0.2598192095756531,-0.19424772262573242,0.044542912393808365,-0.17625129222869873,0.020311780273914337,0.014659232459962368,0.010802260600030422,-0.18030290305614471,-0.003861931851133704,0.06525526940822601,-0.07064254581928253,0.13362517952919006,0.18733470141887665,-0.13524441421031952,-0.13104915618896484,-0.12284325808286667,0.12335983663797379,-0.15152232348918915,-0.13187961280345917,-0.1570214033126831,0.07676038891077042,-0.016656028106808662,-0.10191886126995087,0.09215253591537476,-0.1376228779554367,-0.009070460684597492,-0.07440479099750519,-0.21249066293239594,-0.2659624516963959,-0.1461658477783203,-0.03897543251514435,-0.18473245203495026,0.00007514873868785799,0.017028719186782837,-0.05826577916741371,-0.1111375167965889,0.13909462094306946,-0.08794436603784561,0.1446264088153839,0.1511068344116211,0.13129977881908417,-0.13615812361240387,0.17206788063049316,-0.07967693358659744,-0.004867140669375658,-0.10994500666856766,0.058483805507421494,-0.03915809094905853,-0.19307544827461243,0.11722318083047867,0.008805599994957447,-0.23891060054302216,-0.1716987043619156,-0.05747634172439575,-0.20465043187141418,-0.19277657568454742,-0.2437746375799179,0.07359369099140167,0.06950253248214722,0.06544707715511322,-0.16485966742038727,0.16539576649665833,-0.07335404306650162,-0.04483887553215027,0.23097233474254608,-0.017823735252022743,0.0838356614112854,-0.14236824214458466,0.07785585522651672,-0.05897274985909462,-0.03389585018157959,0.031429894268512726,-0.12112609297037125,-0.1857554167509079,-0.02516704984009266,-0.0025587938725948334,-0.0073504941537976265,0.1405511498451233,-0.21300849318504333,-0.3475990891456604,-0.14751747250556946,-0.14472420513629913,-0.2837739884853363,0.07551386952400208,0.2245161086320877,0.13933095335960388,0.27121612429618835,0.09468763321638107,-0.04781721532344818,0.05627504363656044,0.055206164717674255,-0.10718071460723877,0.19653111696243286,0.08495290577411652,0.12868867814540863,-0.04386294260621071,-0.03770483285188675,-0.05750807002186775,-0.16772383451461792,-0.19450625777244568,-0.18700982630252838,0.06952345371246338,-0.15050038695335388,0.11937611550092697,-0.17061232030391693,0.09864605218172073,-0.19610919058322906,0.031567566096782684,-0.1737891584634781,0.13195864856243134,-0.1094917356967926,-0.16414882242679596,-0.029034070670604706,0.017924830317497253,-0.0930471196770668,0.14690884947776794,0.10794057697057724,-0.07382559776306152,-0.09842078387737274,0.14263269305229187,0.19944141805171967,0.02221876196563244,-0.08240417391061783,0.13191336393356323,0.14036551117897034,0.15572184324264526,-0.12164675444364548,-0.1625354290008545,-0.19529302418231964,0.06691907346248627,-0.06326082348823547,0.14620240032672882,-0.17822900414466858,0.0913061797618866,-0.0800732895731926,0.03259250894188881,-0.12926049530506134,0.12627515196800232,-0.02104468084871769,0.16519063711166382,-0.004734511487185955,0.09134605526924133,0.20812265574932098,0.18061335384845734,0.0732664242386818,-0.07696875184774399,-0.035681791603565216,-0.025955980643630028,-0.17179009318351746,0.16402451694011688,-0.11742031574249268,0.08059099316596985,-0.17684157192707062,0.07294321060180664,-0.14574359357357025,-0.17347407341003418,-0.19460529088974,-0.04578902944922447,-0.10762286931276321,0.13392655551433563,0.0066332342103123665,-0.1700168251991272,0.11310718208551407,0.1141817644238472,0.07994960248470306,0.19537563621997833,-0.07599980384111404,-0.006949077360332012,0.12873859703540802,-0.13594551384449005,0.017764393240213394,0.031725917011499405,-0.1841737926006317,0.08161316066980362,0.10364687442779541,-0.0446057952940464,0.09374156594276428,-0.06476767361164093,-0.12814360857009888,0.056020841002464294,0.10371009260416031,-0.15799477696418762,-0.18813973665237427,-0.11516532301902771,0.1271512657403946,-0.06888389587402344,0.058209966868162155,-0.08412836492061615,-0.04508985951542854,0.1910419762134552,-0.11443022638559341,0.08853940665721893,0.1559026688337326,-0.12771834433078766,0.0662868469953537,-0.14753586053848267,-0.17885532975196838,-0.21893176436424255,0.05142347887158394,0.006580010987818241,0.09804332256317139,-0.0010422419290989637,0.07488548010587692,0.06343241780996323,-0.19934731721878052,0.102596215903759,-0.011178648099303246,-0.012034685350954533,0.019412638619542122,-0.09828630834817886,0.191890150308609,0.15287989377975464,-0.06083131209015846,0.052780959755182266,-0.016411874443292618,0.15151675045490265,-0.08817613869905472,-0.09098560363054276,-0.2042219042778015,0.2330385148525238,0.25430765748023987,0.14538420736789703,-0.11818315833806992,-0.24627964198589325,0.011101539246737957,0.10167844593524933,0.08383355289697647,-0.18207862973213196,-0.05118950083851814,0.03379390388727188,-0.18084459006786346,-0.14526623487472534,-0.03444122523069382,-0.02687191404402256,0.12158426642417908,0.03024640493094921,-0.002301734173670411,-0.050824228674173355,0.04086693376302719,0.051447752863168716,-0.06095495820045471,-0.013266466557979584,-0.11565107107162476,-0.006816945504397154,0.1528676152229309,-0.1215851753950119,0.055461905896663666,-0.04177308827638626,0.10857149958610535,0.1418991982936859,0.19061967730522156,-0.13437481224536896,-0.06112539395689964,-0.19156697392463684,-0.08771646022796631,0.13221248984336853,-0.06706348806619644,-0.25698935985565186,-0.17082679271697998,0.0839637964963913,0.13475804030895233,-0.19742266833782196,-0.19681812822818756,-0.009646723978221416,0.06586727499961853,0.14705052971839905,-0.13593843579292297,-0.046083804219961166,-0.12473105639219284,0.2014159858226776,-0.17370164394378662,0.2079596072435379,0.00679536210373044,0.0737038180232048,0.2672083377838135,0.27310630679130554,0.12878450751304626,0.26588329672813416,0.10043590515851974,-0.05608106404542923,0.19647157192230225,0.06000665947794914,0.09219706058502197,0.05860940366983414,-0.23678433895111084,-0.19955582916736603,-0.29616180062294006,-0.2646774649620056,0.0928361639380455,-0.03551521524786949,-0.020993152633309364,-0.022340940311551094,-0.09236691892147064,0.10775751620531082,0.0924631729722023,-0.10791657865047455,-0.1098022386431694,-0.10419989377260208,-0.08385990560054779,0.13477857410907745,0.2125927209854126,0.15548501908779144,0.15560832619667053,-0.014457659795880318,0.2038102149963379,0.06749740242958069,-0.17663568258285522,-0.031772103160619736,0.051319777965545654,0.04662840813398361,-0.09669423848390579,0.08789549022912979,-0.2656867504119873,-0.17023210227489471,-0.24724851548671722,-0.12394911795854568,0.12978042662143707,-0.1962837278842926,-0.09771652519702911,-0.033825140446424484,-0.013341841287910938,0.10162219405174255,0.13289201259613037,-0.025661302730441093,-0.000986324856057763,0.19464349746704102,0.04389922693371773,-0.1530417799949646,0.1780867576599121,-0.060415033251047134,-0.1673000156879425,-0.0685855895280838,-0.07413114607334137,0.04359126463532448,0.23797062039375305,-0.08474189788103104,-0.09519492834806442,-0.006748495157808065,0.01686178147792816,-0.06901995837688446,-0.03359821438789368,0.0513058602809906,0.04120401293039322,0.1388600617647171,-0.18830491602420807,-0.044128358364105225,-0.10116348415613174,0.17264913022518158,-0.0321812741458416,-0.10279323160648346,0.11487272381782532,-0.09626352041959763,-0.09227757155895233,0.0847603902220726,-0.006060464773327112,-0.07321634143590927,0.08311927318572998,-0.17832675576210022,-0.16453947126865387,0.042191121727228165,-0.1360609084367752,-0.19887380301952362,0.0403633750975132,-0.14179183542728424,-0.08390453457832336,0.10625789314508438,-0.09756338596343994,0.0404079295694828,-0.28899502754211426,-0.07481477409601212,-0.09159685671329498,0.020056335255503654,-0.004889307543635368,0.17341436445713043,-0.19100789725780487,-0.11540785431861877,-0.1666082739830017,0.1634068340063095,0.02218320220708847,0.011851970106363297,-0.18630434572696686,-0.0709860622882843,-0.10431798547506332,0.1183721125125885,-0.020998405292630196,-0.07418042421340942,-0.03154628723859787,-0.2559801936149597,-0.16676265001296997,0.13934840261936188,0.254511296749115,0.19820986688137054,0.1749444305896759,0.16169103980064392,0.03403368964791298,-0.17448188364505768,-0.11430206149816513,-0.13937918841838837,0.1609601527452469,0.05319149047136307,0.04405191168189049,0.17305301129817963,0.03596673905849457,0.10608195513486862,-0.11200429499149323,-0.03477046266198158,0.13576385378837585,-0.051256462931632996,0.03175007179379463,-0.01790066622197628,0.14507421851158142,-0.10786300152540207,0.1903688907623291,0.03561711683869362,-0.009678288362920284,-0.06876657903194427,0.04753657802939415,-0.048630259931087494,-0.060926079750061035,-0.10734663903713226,-0.12283677607774734,0.06563863903284073,0.038962237536907196,-0.2636943459510803,-0.19270218908786774,-0.023613233119249344,-0.18425312638282776,0.17013172805309296,-0.12863880395889282,0.1436382234096527,-0.18735064566135406,-0.01959768868982792,-0.007472372148185968,0.16041669249534607,-0.13902221620082855,0.1977802813053131,-0.08144596219062805,-0.14105477929115295,0.1846206933259964,-0.007966904900968075,-0.005643630400300026,-0.001011597109027207,0.14481857419013977,-0.05274835601449013,0.11902271956205368,-0.019970864057540894,-0.008665557950735092,0.028595849871635437,0.0032729357481002808,-0.05364372953772545,0.08042695373296738,0.056549422442913055,-0.08383588492870331,0.05590111389756203,-0.1892181634902954,-0.1547921746969223,0.04535704851150513,-0.07526174187660217,0.12623968720436096,-0.0169359277933836,0.12208645045757294,0.10628621280193329,0.1346944272518158,-0.03668936342000961,-0.09510735422372818,-0.16198498010635376,0.14997278153896332,-0.15696166455745697,-0.15058276057243347,-0.18098796904087067,-0.2594088912010193,-0.1852155178785324,-0.26306965947151184,-0.2646403908729553,-0.26371335983276367,0.06733033806085587,-0.19058391451835632,-0.07166125625371933,-0.18538318574428558,-0.04605645313858986,0.014744111336767673,-0.15061941742897034,0.03448805212974548,0.15224644541740417,0.09796729683876038,0.1674375832080841,0.10362312197685242,-0.07334989309310913,-0.02475018985569477,0.10550593584775925,-0.06141991913318634,0.15375779569149017,0.04074861854314804,-0.014256199821829796,0.1209716945886612,-0.1463109403848648,0.15963008999824524,-0.15995261073112488,-0.26600155234336853,-0.17611801624298096,0.09380881488323212,-0.23221732676029205,0.13915763795375824,0.12822981178760529,-0.28642934560775757,-0.1265525370836258,0.0925031304359436,-0.1868697851896286,-0.021023325622081757,0.18142151832580566,-0.03873405605554581,0.14885465800762177,-0.004814480431377888,-0.020232604816555977,-0.07855048030614853,0.1854163110256195,-0.021658239886164665,-0.07522956281900406,-0.02357371710240841,-0.039060529321432114,-0.17459024488925934,-0.11242008209228516,-0.01806006394326687,0.020822227001190186,0.12908871471881866,0.0431511215865612,-0.18397869169712067,-0.14632458984851837,0.14319749176502228,-0.09002572298049927,-0.11455496400594711,0.08820000290870667,-0.1799342781305313,-0.05650435760617256,0.13462530076503754,-0.05403973534703255,-0.03382101282477379,-0.15017209947109222,0.08416597545146942,-0.10287831723690033,0.11624190956354141,0.18856577575206757,-0.14737090468406677,0.06409737467765808,-0.08086777478456497,0.061872780323028564,0.07526108622550964,0.19267845153808594,-0.10358026623725891,-0.2190185785293579,-0.05412288010120392,-0.17362293601036072,-0.23742137849330902,-0.13833682239055634,0.10166683048009872,0.06944713741540909,-0.056893136352300644,0.026761183515191078,0.008900292217731476,0.03372184559702873,-0.03189539164304733,0.158715158700943,0.18862871825695038,-0.07441898435354233,-0.1866643875837326,-0.011874779127538204,-0.13945044577121735,-0.12886469066143036,0.006609529256820679,0.09384866058826447,-0.05976241081953049,-0.1697814017534256,-0.06032051518559456,-0.1494291126728058,-0.1922835111618042,-0.19665169715881348,-0.06983649730682373,-0.16256870329380035,-0.0015186298405751586,0.10886847227811813,-0.0886358693242073,-0.12354599684476852,-0.13472577929496765,-0.09243526309728622,-0.1372804194688797,-0.20422959327697754,0.17802755534648895,-0.19412115216255188,-0.09796857088804245,0.12688004970550537,0.09935785084962845,0.0692627802491188,0.010495439171791077,0.10649242252111435,0.0239395871758461,0.07654932886362076,0.09427136182785034,0.08175209909677505,0.1761193722486496,0.009361445903778076,0.08794764429330826,0.07321212440729141,-0.0733991488814354,-0.01287300419062376,-0.008735009469091892,0.1508650928735733,0.12888947129249573,0.16913048923015594,0.14197500050067902,0.14325709640979767,0.03371424973011017,-0.058485254645347595,0.08633159101009369,0.05303433537483215,0.144232839345932,-0.10203975439071655,0.1432621031999588,0.10061798244714737,0.1883920282125473,0.04498700052499771,0.005530533846467733,0.16554561257362366,-0.1336483210325241,-0.03275095671415329,0.017152108252048492,-0.1495746672153473,0.12263638526201248,0.02229401469230652,-0.004638135898858309,-0.16517244279384613,0.1508561372756958,-0.06488272547721863,-0.13143016397953033,-0.008270119316875935,0.010516650043427944,-0.06355302780866623,0.08592449128627777,0.10108593851327896,0.022712228819727898,0.10837060213088989,0.11994857341051102,0.07058276981115341,-0.060178495943546295,-0.04917866364121437,0.06204698607325554,0.06716012954711914,0.15461067855358124,-0.018781332299113274,-0.05167270451784134,0.04374445229768753,0.08998940140008926,-0.1341163069009781,0.04642658680677414,0.09425731003284454,-0.1761276125907898,0.016854630783200264,-0.018454745411872864]},{"bias":-0.18925940990447998,"weights":[-0.16234293580055237,-0.07681474089622498,0.16540873050689697,-0.04106323421001434,-0.14580108225345612,-0.09016390144824982,0.18000514805316925,0.164322629570961,-0.043991684913635254,0.004658652935177088,-0.0781804695725441,0.0631965845823288,-0.11143985390663147,0.11137105524539948,0.0380663126707077,0.031139269471168518,0.04870140925049782,0.10155729204416275,0.0632593110203743,-0.005057331174612045,-0.1377645581960678,0.05608353391289711,-0.1593453586101532,-0.13983632624149323,-0.057909946888685226,-0.05555867403745651,-0.08481791615486145,-0.04201424494385719,0.09480879455804825,0.19282808899879456,-0.06044163182377815,-0.0952090322971344,0.07555592805147171,-0.08195630460977554,-0.19710774719715118,0.010194530710577965,-0.05181189253926277,-0.0339452400803566,0.125277578830719,0.1638852059841156,0.10611142963171005,0.12433721125125885,-0.004319889470934868,0.19349771738052368,0.07395192980766296,-0.039882026612758636,0.15637917816638947,0.02337980642914772,0.15297292172908783,-0.18480093777179718,0.0773327499628067,-0.10095560550689697,0.0353243388235569,0.13615186512470245,0.12861254811286926,0.052700359374284744,-0.02810930646955967,0.11906471103429794,-0.0616665855050087,0.15417325496673584,0.04787684231996536,-0.08914407342672348,-0.0011339830234646797,0.012208067812025547,0.005823110695928335,0.148990198969841,0.08972159028053284,-0.16445374488830566,0.06433451175689697,-0.11277501285076141,0.19511352479457855,-0.12228736281394958,-0.022609826177358627,0.08488433063030243,0.13492533564567566,0.1659029871225357,0.08820458501577377,-0.10777594149112701,-0.017170408740639687,-0.06927502155303955,0.12748956680297852,0.11458980292081833,-0.19516247510910034,-0.1346510499715805,-0.032588470727205276,0.03541678562760353,-0.16767697036266327,0.004079103469848633,-0.11365668475627899,0.1941683441400528,0.06219720095396042,-0.14827212691307068,0.1429518312215805,-0.21086525917053223,0.0732976645231247,-0.05167911946773529,0.0642562285065651,0.06219849735498428,0.0894777700304985,0.19356189668178558,-0.168981671333313,0.044848568737506866,0.09519016742706299,0.25992435216903687,0.16073642671108246,-0.18833349645137787,-0.036480702459812164,-0.07988154888153076,-0.04000018537044525,-0.05960366874933243,-0.05940468609333038,0.06389954686164856,0.09811088442802429,-0.1862044334411621,-0.001539097516797483,-0.1947399377822876,0.15390539169311523,0.1293013095855713,-0.11883505433797836,0.12728650867938995,-0.17829400300979614,0.15417493879795074,-0.10556947439908981,0.07619409263134003,-0.05571742355823517,0.06652813404798508,0.045618686825037,0.1073780357837677,-0.00771297374740243,-0.1478400081396103,0.1579637974500656,0.15280672907829285,-0.06845960766077042,-0.01362934522330761,0.1688903421163559,0.1402352899312973,-0.11943082511425018,0.06668120622634888,0.10362807661294937,-0.0997408777475357,-0.1650424748659134,0.137348011136055,0.07911235839128494,-0.01246995572000742,0.09205798804759979,-0.18534019589424133,0.1169465109705925,0.12804628908634186,0.15014491975307465,-0.03445158898830414,0.10384995490312576,-0.003304129932075739,-0.22404047846794128,0.1296743005514145,-0.2376415878534317,0.027648553252220154,-0.062233708798885345,-0.18346098065376282,0.03082161955535412,0.13952727615833282,0.13934268057346344,-0.1574588567018509,-0.17448534071445465,-0.03418557718396187,-0.09544431418180466,0.02243451587855816,0.12797529995441437,-0.17456911504268646,-0.16035276651382446,-0.017767978832125664,0.09653834253549576,0.17896758019924164,0.12719610333442688,-0.07348352670669556,0.12480375915765762,0.1172366738319397,-0.10847950726747513,-0.06102012097835541,0.1444425880908966,-0.12748944759368896,-0.16725635528564453,-0.08405793458223343,0.10932114720344543,-0.2330358773469925,0.07237079739570618,-0.20122236013412476,-0.03083343245089054,0.12124305963516235,-0.19746437668800354,-0.1469407081604004,-0.02992149069905281,0.1689261496067047,-0.0644671618938446,-0.13869747519493103,-0.13355059921741486,0.14424826204776764,0.14604483544826508,-0.032273225486278534,0.14997731149196625,-0.1608171910047531,-0.17730043828487396,0.18050211668014526,0.11911880224943161,0.02743849903345108,-0.20927518606185913,0.06059667840600014,0.015262139961123466,-0.02642802521586418,-0.26536843180656433,-0.09112978726625443,-0.02139112539589405,-0.0960608497262001,0.1060904935002327,-0.19299156963825226,-0.16107001900672913,0.14829806983470917,-0.17300385236740112,0.0012355033541098237,-0.19611813127994537,0.017131807282567024,-0.1369388997554779,-0.16717590391635895,0.10044524818658829,0.09903717786073685,0.14165085554122925,0.1201355829834938,0.03952056169509888,-0.029326356947422028,0.042791593819856644,0.06595981866121292,-0.11441116034984589,-0.18648751080036163,-0.06012516841292381,0.11550340801477432,-0.0013022901257500052,-0.22738949954509735,0.13037054240703583,-0.12945455312728882,-0.002879957901313901,-0.17816445231437683,-0.14863139390945435,-0.04657595604658127,0.0161628108471632,0.008765367791056633,-0.07202190160751343,0.11314337700605392,-0.07631976902484894,0.02690175548195839,-0.12799309194087982,-0.2260618656873703,0.0054177879355847836,-0.14928103983402252,-0.0037161412183195353,-0.1463339477777481,-0.013195076957345009,0.10373560339212418,-0.1766868531703949,-0.11965388059616089,0.09926068037748337,-0.18172307312488556,0.15211279690265656,-0.15448276698589325,0.038138967007398605,-0.05068407952785492,0.07739850133657455,-0.04574789106845856,-0.007937902584671974,0.019220277667045593,-0.11604864150285721,-0.1077413558959961,-0.3085588216781616,0.007291361223906279,-0.2274165153503418,-0.12141259759664536,-0.10264100134372711,0.07624991983175278,-0.040393561124801636,0.1354641169309616,-0.08069732785224915,-0.13168060779571533,0.1665535718202591,0.014151656068861485,-0.18840725719928741,0.09555097669363022,-0.20274364948272705,-0.08297905325889587,-0.15620708465576172,-0.04101181775331497,0.17551057040691376,-0.13324643671512604,-0.12612669169902802,-0.1415954828262329,0.1360287368297577,0.04936319589614868,0.06935752183198929,-0.13075794279575348,-0.14285063743591309,0.1006506159901619,-0.04909823462367058,-0.07114075869321823,0.04633296653628349,-0.1178220883011818,-0.09931399673223495,-0.10518421232700348,-0.13302692770957947,0.17334328591823578,-0.12092271447181702,-0.16841760277748108,0.007670051418244839,0.018139511346817017,0.02632344327867031,-0.14796428382396698,-0.025050397962331772,-0.09947075694799423,0.21292440593242645,-0.05237876996397972,0.2513860762119293,0.04869167134165764,0.04157468304038048,-0.045989200472831726,-0.004966771230101585,0.13991093635559082,-0.03871772438287735,-0.05437634885311127,-0.195633664727211,0.13507327437400818,-0.10708915442228317,0.04952552914619446,0.04854413494467735,-0.08290339261293411,0.024382684379816055,0.19819918274879456,0.14987757802009583,0.1503162831068039,0.03771806135773659,-0.05966038256883621,-0.18305392563343048,-0.021413272246718407,0.14860089123249054,-0.1926661878824234,0.153018057346344,0.17357535660266876,0.16540437936782837,-0.03359615430235863,-0.0089705940335989,0.1799808293581009,0.09557811170816422,0.07748465985059738,-0.0337093211710453,-0.13362480700016022,-0.06791612505912781,0.12937824428081512,0.12862329185009003,0.03337910771369934,0.05810454115271568,-0.09206070750951767,-0.030073463916778564,0.2054530680179596,0.21257533133029938,0.11722244322299957,-0.019675040617585182,-0.102596715092659,0.17257475852966309,0.1992672085762024,0.08799746632575989,-0.13073651492595673,0.08160854130983353,0.009699868969619274,0.11413706094026566,0.11968070268630981,-0.07559385150671005,0.12861420214176178,0.12883174419403076,0.045135319232940674,0.24510793387889862,-0.15694792568683624,-0.016152506694197655,0.16514888405799866,0.19592145085334778,-0.013621707446873188,-0.03200777247548103,0.08557523787021637,0.15434004366397858,-0.14152835309505463,-0.07640872895717621,-0.06732198596000671,0.0333862267434597,-0.15294544398784637,-0.07992532849311829,0.058501895517110825,-0.15964585542678833,-0.03833652287721634,0.05413951352238655,0.19554167985916138,-0.16382406651973724,0.04482472315430641,-0.1852850466966629,-0.0731114000082016,-0.10537292063236237,-0.10081747174263,0.19823390245437622,0.14939479529857635,0.10738988220691681,0.1821112036705017,-0.18712559342384338,0.06118902936577797,0.14924590289592743,-0.06793203204870224,-0.018105508759617805,-0.09504937380552292,-0.02771420031785965,-0.04608976095914841,-0.01394160371273756,0.08355941623449326,0.022289592772722244,0.1666308045387268,0.03976920619606972,-0.060169100761413574,-0.14767415821552277,-0.0659271627664566,-0.08573998510837555,-0.08585155755281448,-0.13596734404563904,0.10858262330293655,0.1368388533592224,0.1686374843120575,-0.029113423079252243,0.19562777876853943,0.15042871236801147,0.029872886836528778,0.1496489942073822,-0.11115553230047226,0.1677505522966385,0.12620823085308075,0.19330935180187225,0.10111545771360397,0.13775546848773956,-0.025464894250035286,-0.13305087387561798,-0.004054289776831865,0.024090344086289406,-0.12461575865745544,-0.09332730621099472,0.13390681147575378,0.025956202298402786,0.0807916447520256,-0.1855604499578476,0.0838848203420639,-0.12708871066570282,0.03951850160956383,0.17373783886432648,0.00542256748303771,-0.12999995052814484,0.025655683130025864,0.117058165371418,-0.06823983788490295,-0.026602836325764656,0.06868405640125275,0.1572338491678238,0.21904602646827698,-0.06827665120363235,0.0931510478258133,0.01673324592411518,-0.08495252579450607,0.12685176730155945,0.04451226815581322,-0.16218288242816925,0.15017911791801453,-0.1999504715204239,-0.07955501973628998,0.15245740115642548,-0.1286168247461319,-0.07950910925865173,-0.11531733721494675,-0.09720966964960098,0.04908423125743866,-0.12883229553699493,0.18884879350662231,-0.19464713335037231,-0.07300643622875214,-0.06333014369010925,0.0650077760219574,-0.015206621028482914,-0.1646510660648346,-0.1509830504655838,-0.016576185822486877,0.18955098092556,0.1906890571117401,0.20016290247440338,0.24091173708438873,0.18488650023937225,0.18650731444358826,-0.12448563426733017,-0.014150284230709076,-0.053737007081508636,0.19445019960403442,0.02229105681180954,-0.179276704788208,0.03985249996185303,-0.16919808089733124,-0.09308409690856934,0.16707509756088257,-0.00849286001175642,0.14855362474918365,-0.152312770485878,0.07207467406988144,0.03278210014104843,-0.0803905799984932,-0.15021982789039612,-0.16505086421966553,-0.22175563871860504,-0.08134526014328003,-0.0091616902500391,0.054847683757543564,0.27233803272247314,0.03497692197561264,0.10967094451189041,-0.11850730329751968,-0.11699331551790237,-0.08329208940267563,-0.14929121732711792,0.012273638509213924,-0.19615286588668823,-0.16517885029315948,-0.08828407526016235,-0.15728527307510376,-0.17701396346092224,-0.05446299910545349,0.07944564521312714,-0.11553941667079926,0.11572571843862534,0.017382120713591576,-0.006841791793704033,-0.02206122875213623,0.06478071212768555,-0.08068276196718216,-0.061857376247644424,-0.08746702969074249,0.03850991651415825,-0.1506604701280594,-0.07522813975811005,-0.10452646017074585,0.007869093678891659,0.045521996915340424,-0.016577700152993202,0.13337045907974243,0.03455128148198128,0.1357792466878891,0.07238580286502838,-0.18381626904010773,0.08907529711723328,-0.21329650282859802,-0.21641859412193298,0.04383445903658867,-0.16736866533756256,-0.01384801510721445,-0.10753465443849564,0.09013662487268448,0.04717536270618439,0.140615314245224,-0.012961474247276783,-0.17505937814712524,-0.07791920751333237,-0.1445002406835556,0.08227123320102692,-0.17069050669670105,-0.20987577736377716,0.06821910291910172,-0.09823691099882126,-0.1962381899356842,-0.19020439684391022,0.059010718017816544,0.11994200944900513,0.018681000918149948,0.11608324944972992,0.16223114728927612,-0.000025554134481353685,-0.23739971220493317,-0.10274838656187057,-0.1823839396238327,-0.18124644458293915,-0.11547157168388367,0.10295487195253372,-0.09713511168956757,-0.03246477618813515,0.10315927863121033,-0.19594185054302216,0.08230740576982498,-0.03360682353377342,0.09479109942913055,-0.1950875222682953,0.030638957396149635,0.04011717066168785,-0.15328989923000336,-0.18661344051361084,-0.23452706634998322,-0.15942496061325073,0.09252643585205078,-0.13282129168510437,0.10022557526826859,0.08048272132873535,0.10081833600997925,-0.06230323389172554,-0.09694701433181763,-0.17645633220672607,-0.09392619132995605,0.14858633279800415,-0.129328191280365,-0.033593472093343735,-0.206727996468544,0.08292264491319656,-0.14135107398033142,0.01920076087117195,-0.15341134369373322,-0.005778616294264793,-0.19632156193256378,-0.09466194361448288,0.1501428484916687,0.14960764348506927,0.05687631666660309,0.10998933762311935,0.1303294152021408,-0.20250633358955383,-0.05691039562225342,0.1503547579050064,0.06546931713819504,-0.26139432191848755,0.11593293398618698,-0.164032444357872,-0.13433781266212463,0.10146208852529526,0.20714250206947327,-0.028300320729613304,0.01001372653990984,-0.15512508153915405,-0.16583697497844696,0.15808309614658356,0.0983966514468193,0.008957008831202984,-0.005102573893964291,-0.05807998776435852,-0.1366416960954666,0.10447070002555847,-0.08579547703266144,0.13333413004875183,-0.06847892701625824,-0.01483316533267498,-0.07183384895324707,0.0491621196269989,-0.035633597522974014,0.13697312772274017,-0.0037521685007959604,-0.1614619642496109,-0.0766417607665062,-0.10070168226957321,-0.06362829357385635,0.0018274225294589996,0.059054695069789886,-0.26386842131614685,-0.23546093702316284,0.03593149781227112,0.1162380799651146,0.0015252220910042524,0.21780642867088318,-0.16627775132656097,0.03624529391527176,0.18476276099681854,0.05007296800613403,-0.13774006068706512,-0.017199138179421425,-0.03598297759890556,0.12205657362937927,-0.13638092577457428,0.06271716952323914,-0.004867554176598787,-0.07954485714435577,0.09113052487373352,0.12966369092464447,0.0347478874027729,0.14699341356754303,0.06677788496017456,-0.16628263890743256,0.10508464276790619,0.005149204749614,-0.08463414758443832,0.06348031759262085,-0.04583240672945976,-0.18027278780937195,-0.0483204685151577,-0.08434029668569565,0.16687001287937164,0.034241270273923874,0.14120230078697205,0.13645745813846588,0.20094923675060272,0.017138222232460976,0.09962977468967438,-0.1474749594926834,-0.1861443668603897,-0.09914272278547287,-0.021186532452702522,0.1260269582271576,-0.18924538791179657,-0.08782509714365005,-0.0543634295463562,0.09958812594413757,0.17349284887313843,0.028892192989587784,-0.05365496501326561,-0.14256487786769867,0.06153633072972298,-0.10762804746627808,-0.16388897597789764,0.18896770477294922,0.0790058821439743,-0.0621781162917614,0.21832099556922913,0.051622360944747925,0.09623686224222183,0.20024476945400238,0.04258743301033974,0.14369076490402222,-0.16604802012443542,-0.10547228157520294,0.14958061277866364,0.015471335500478745,-0.06254692375659943,-0.16704584658145905,0.06453637778759003,0.1430622786283493,-0.08717163652181625,-0.16841863095760345,-0.05819081515073776,0.15990668535232544,0.12595157325267792,-0.004156847950071096,-0.004251675680279732,0.12753237783908844,-0.20291069149971008,-0.048009615391492844,0.11272961646318436,-0.1404937356710434,-0.14950871467590332,-0.06156105920672417,0.05675918981432915,-0.1988709270954132,0.012109835632145405,-0.0049719903618097305,-0.13962116837501526,-0.19257910549640656,0.1466873586177826,-0.19158321619033813,-0.17521534860134125,-0.0365157425403595,0.1837613880634308,-0.08634477108716965,0.04318257048726082,0.1433657705783844,0.1129157766699791,-0.10419487208127975,0.043848440051078796,-0.03235596418380737,-0.07182864099740982,0.009149903431534767,-0.020312277600169182,-0.08582450449466705,0.06802841275930405,0.024163300171494484,-0.1485787034034729,0.1966390609741211,-0.1855149269104004,-0.09445834159851074,-0.08651706576347351,-0.011398144997656345,-0.016276542097330093,-0.05985869839787483,0.18809732794761658,-0.1454835683107376,0.18390360474586487,0.16133438050746918,0.045794133096933365,-0.06898092478513718,-0.15849152207374573,0.12357375770807266]},{"bias":0.04571007192134857,"weights":[0.09835740923881531,-0.04801744967699051,-0.1263170689344406,-0.128370463848114,0.013177135027945042,-0.19460460543632507,0.04747219383716583,-0.17869789898395538,-0.00935159157961607,0.12046245485544205,0.028931815177202225,-0.1354335993528366,0.08007078617811203,0.12343751639127731,0.11005381494760513,0.01640646532177925,0.14353902637958527,-0.028393495827913284,-0.08949661254882812,0.020770104601979256,-0.04682556912302971,0.11998648941516876,0.1442154198884964,-0.158363476395607,0.17685820162296295,-0.1242622435092926,-0.03267661854624748,-0.16085800528526306,0.17534072697162628,-0.007777139078825712,0.1978822946548462,-0.1361902356147766,-0.11221757531166077,-0.144636332988739,-0.16875919699668884,0.1428147256374359,-0.06123358756303787,0.10362140089273453,0.0848388522863388,-0.13083511590957642,-0.16516883671283722,0.118983194231987,-0.18789824843406677,0.03439955413341522,0.16023647785186768,-0.01969292014837265,-0.1709943562746048,0.017108770087361336,0.013622096739709377,-0.039557963609695435,0.08360500633716583,-0.19842559099197388,0.14324209094047546,-0.08481080085039139,-0.04551835358142853,-0.06406380981206894,0.008291373029351234,-0.0842597708106041,-0.1729903221130371,0.07159833610057831,0.05937791243195534,0.14020971953868866,0.02169336937367916,-0.09761747717857361,0.11340188980102539,-0.16324478387832642,-0.028012216091156006,-0.18234632909297943,0.10605847090482712,0.12233642488718033,-0.10494427382946014,-0.01773741841316223,0.04081287607550621,0.0753258615732193,0.06357531994581223,0.030300011858344078,0.15852349996566772,-0.10137543082237244,-0.0967261791229248,-0.05210460349917412,0.0741899311542511,0.1431208699941635,-0.00875601451843977,-0.1901080310344696,0.1218322142958641,-0.13255324959754944,0.07449952512979507,0.19604532420635223,-0.14651845395565033,0.135420560836792,0.021719414740800858,0.1704104244709015,-0.09327507019042969,-0.056176722049713135,0.1757117211818695,-0.03549521416425705,0.20019486546516418,0.10712438076734543,0.07024628669023514,-0.18779124319553375,-0.2145082950592041,-0.002131366403773427,-0.23920506238937378,0.14619773626327515,-0.2023998647928238,-0.010050473734736443,0.18781587481498718,-0.024097410961985588,0.04489303007721901,-0.1897851526737213,0.03091726452112198,0.12850090861320496,0.15222004055976868,-0.06466148048639297,-0.14339303970336914,0.008357142098248005,0.1505250483751297,-0.15610487759113312,0.18150106072425842,0.021101737394928932,-0.1634955108165741,-0.09482048451900482,-0.13866481184959412,0.11740035563707352,0.1880023330450058,0.1444631814956665,0.11897364258766174,-0.07028800249099731,-0.09656373411417007,0.04120515659451485,0.09772435575723648,-0.18683062493801117,-0.07302085310220718,0.04322193190455437,0.13583889603614807,-0.10814030468463898,-0.09410949051380157,0.03701398894190788,-0.14583218097686768,-0.005898533388972282,0.06286806613206863,-0.06130196899175644,-0.07904650270938873,0.07452106475830078,-0.012968855910003185,-0.0121859610080719,-0.09106087684631348,-0.16400650143623352,0.2163410782814026,0.06339530646800995,0.15126195549964905,0.12477578222751617,0.1808919757604599,0.00953941885381937,0.06898076087236404,-0.11861133575439453,0.07694929093122482,-0.10505307465791702,0.055857881903648376,-0.15061140060424805,-0.09977821260690689,-0.039446134120225906,0.10956819355487823,-0.17764812707901,0.1719772070646286,-0.03077208250761032,0.1438617706298828,-0.09501571953296661,0.13520123064517975,0.14493390917778015,-0.17996497452259064,0.04692227020859718,0.02875712886452675,-0.007044290658086538,0.2242881953716278,0.0012510312953963876,0.1580638438463211,-0.03899480029940605,0.16803841292858124,0.18639475107192993,0.010104225017130375,0.13156655430793762,-0.09603042900562286,0.04785200208425522,-0.17414043843746185,-0.184879332780838,-0.023731254041194916,-0.0892576351761818,0.13236862421035767,0.05507959425449371,-0.08566934615373611,-0.18179252743721008,-0.03037377819418907,-0.003855248913168907,0.0805215984582901,0.09896624088287354,-0.08373216539621353,-0.07445036619901657,0.044651564210653305,0.016945037990808487,-0.07173120230436325,-0.0618794746696949,0.06721380352973938,0.08001761883497238,-0.05640219524502754,-0.05283745005726814,0.09592518955469131,-0.04597010090947151,0.08324208855628967,-0.10274817794561386,-0.02144717425107956,-0.030378736555576324,0.07746676355600357,-0.12140920013189316,0.18441632390022278,0.06828866899013519,0.05330769717693329,0.16763155162334442,-0.14993658661842346,-0.08785255253314972,-0.08670914173126221,-0.18824484944343567,0.0579322874546051,-0.16337890923023224,-0.0038839359767735004,0.053010597825050354,-0.10601186007261276,-0.01963038183748722,0.021862084046006203,0.07401109486818314,-0.035746339708566666,-0.07083914428949356,-0.023808445781469345,0.08794666826725006,0.1144607737660408,-0.033259209245443344,0.20221033692359924,-0.08791282027959824,-0.13248582184314728,0.0429588221013546,0.0018035366665571928,-0.054656121879816055,-0.05905812606215477,0.008603576570749283,-0.028000524267554283,-0.04349873587489128,-0.03697690740227699,0.005038239993155003,-0.19536763429641724,-0.02882564812898636,-0.008041097782552242,-0.19399690628051758,-0.158042311668396,-0.052712906152009964,0.011538319289684296,0.1650846153497696,-0.0559878945350647,0.03598000109195709,0.22975195944309235,-0.05742510035634041,0.05216929689049721,-0.04394659399986267,-0.09436680376529694,-0.277992308139801,0.08444755524396896,-0.2675396800041199,0.09588407725095749,-0.04013600945472717,-0.015862461179494858,0.0288095660507679,0.014343185350298882,0.08521926403045654,-0.07605482637882233,0.20647402107715607,-0.019903209060430527,0.04555036127567291,-0.06961525976657867,0.031042352318763733,-0.03907036781311035,0.10497437417507172,0.06329607963562012,-0.0021625380031764507,0.12191446870565414,0.096153125166893,-0.01609327644109726,-0.18441727757453918,-0.018870603293180466,-0.1967095136642456,-0.2710036635398865,-0.2857133448123932,-0.2791460454463959,-0.12715081870555878,-0.2168145775794983,-0.1451531946659088,-0.16282416880130768,-0.06357045471668243,0.02075352892279625,0.2575299143791199,-0.026590576395392418,0.15758956968784332,0.1130138635635376,-0.02277575433254242,-0.13494046032428741,-0.14506451785564423,-0.13146156072616577,-0.07806979864835739,-0.14538118243217468,0.024314280599355698,-0.1564883440732956,0.10485827177762985,-0.17156825959682465,0.1576676070690155,0.01483919471502304,0.11397743225097656,0.028072910383343697,-0.2301860749721527,-0.20097342133522034,0.01857576332986355,-0.31574752926826477,-0.10521294921636581,0.007242420222610235,-0.1769338697195053,-0.10345227271318436,0.28379514813423157,0.22093643248081207,0.14377109706401825,-0.04113461449742317,0.12018586695194244,0.024415096268057823,-0.12161432206630707,0.03465012460947037,-0.14457713067531586,-0.1507747918367386,0.05021718516945839,-0.13993875682353973,-0.09838486462831497,0.1512671709060669,-0.017531640827655792,-0.05653568357229233,0.011558100581169128,-0.16250117123126984,-0.04273492097854614,0.11839903146028519,-0.032130274921655655,0.07271702587604523,-0.02579517476260662,-0.17039835453033447,-0.039964549243450165,-0.02423165738582611,0.08093659579753876,0.038014933466911316,0.23537197709083557,0.21983759105205536,0.18589326739311218,-0.1550147384405136,0.17368829250335693,0.052739594131708145,-0.00584418373182416,0.047913458198308945,0.012141108512878418,-0.08833042532205582,-0.13526949286460876,-0.18348275125026703,-0.06899092346429825,-0.045571934431791306,0.08269298076629639,-0.1763852834701538,0.02795601822435856,0.05828673765063286,-0.041247524321079254,-0.19306407868862152,-0.05175315961241722,-0.1271546483039856,0.008731605485081673,-0.1840660125017166,0.18081805109977722,-0.03200797364115715,-0.05178188532590866,0.006451289169490337,-0.029419880360364914,0.0915016233921051,0.06365847587585449,0.01033579558134079,-0.16022688150405884,0.12744927406311035,-0.11529349535703659,0.15017129480838776,-0.06701865792274475,-0.10482686758041382,0.1445859968662262,-0.12252996861934662,-0.19438806176185608,0.10817322880029678,0.08615872263908386,0.08564185351133347,-0.08189751207828522,-0.02048281766474247,0.035281069576740265,-0.10001514852046967,-0.16820789873600006,-0.03692696616053581,-0.22639347612857819,-0.07100359350442886,-0.13788074254989624,0.017698857933282852,-0.10126389563083649,-0.10630764067173004,0.19237200915813446,-0.14344526827335358,0.03763454407453537,-0.056549131870269775,-0.17072246968746185,0.093003049492836,-0.05999073386192322,-0.2339247316122055,-0.031250420957803726,-0.1749948263168335,-0.06426595151424408,-0.15326790511608124,0.021668804809451103,-0.18610574305057526,-0.019356729462742805,0.1167740672826767,0.18317024409770966,-0.04916739836335182,0.03566185384988785,-0.1450631469488144,0.05694114789366722,-0.001239529112353921,0.22287999093532562,-0.013811257667839527,0.0002237126464024186,-0.07532624900341034,0.21059603989124298,0.10255677253007889,0.0779346376657486,0.07530221343040466,-0.04688945412635803,0.10622023046016693,0.04362305626273155,-0.14281065762043,0.12465023249387741,0.031061001121997833,-0.036981672048568726,-0.16266830265522003,0.18656431138515472,0.19050410389900208,-0.14970606565475464,-0.08346850425004959,-0.08558978140354156,0.09079597890377045,-0.08523726463317871,0.11552470177412033,-0.2200620174407959,-0.131132572889328,0.19575539231300354,0.020969754084944725,-0.11514962464570999,-0.1600269228219986,0.0014685697387903929,-0.03701014816761017,-0.1475115269422531,0.01963205263018608,-0.1319134384393692,0.26070070266723633,-0.0655280128121376,0.1369885802268982,-0.06515204161405563,0.04544874653220177,-0.21595145761966705,0.12893256545066833,0.10080403834581375,-0.051642563194036484,0.04365117475390434,-0.03230747953057289,-0.058998074382543564,-0.10977010428905487,-0.06439241021871567,-0.18446843326091766,-0.14424608647823334,0.07109548896551132,0.08546742796897888,0.10168834030628204,-0.10311083495616913,0.0966479703783989,-0.01114413607865572,0.13655918836593628,0.0891733467578888,-0.13762785494327545,0.22111205756664276,-0.07855475693941116,0.2001601755619049,0.0203690342605114,-0.006330543663352728,-0.17736685276031494,0.16094306111335754,-0.011524350382387638,0.0017509835306555033,0.12388385832309723,-0.003118372755125165,-0.15352825820446014,0.027393965050578117,0.13203054666519165,0.13309906423091888,-0.04377878084778786,-0.15899640321731567,0.08906571567058563,-0.05899926275014877,0.12458249181509018,-0.1337316632270813,-0.09574959427118301,-0.08361206203699112,0.054348286241292953,-0.14980630576610565,-0.039251659065485,0.12761810421943665,-0.13300973176956177,0.04341552406549454,-0.06163481995463371,0.18016231060028076,0.06655760854482651,0.008238596841692924,-0.20077167451381683,-0.14360478520393372,-0.20900195837020874,-0.12547667324543,0.21140256524085999,0.06719125807285309,-0.11380024254322052,0.1166638508439064,-0.015089673921465874,0.1574891209602356,0.13428746163845062,0.07229955494403839,-0.016053084284067154,-0.12131553143262863,-0.10462605208158493,-0.0661536157131195,0.17729955911636353,-0.2934640347957611,-0.05690809711813927,-0.1361105591058731,-0.07119124382734299,-0.10273546725511551,0.03662027046084404,0.018960602581501007,-0.09378422051668167,0.09954793006181717,0.040503717958927155,0.12698864936828613,-0.0027369821909815073,0.06968220323324203,0.13969196379184723,-0.11466899514198303,-0.041503507643938065,0.16042406857013702,-0.007199186831712723,-0.008467696607112885,-0.03226488083600998,-0.14635704457759857,0.16338641941547394,0.07368885725736618,-0.07708269357681274,0.04020056128501892,0.02859329618513584,0.023586777970194817,-0.0785754844546318,0.15325500071048737,0.04495684430003166,0.014621773734688759,-0.2402280569076538,-0.05032665655016899,-0.01308694202452898,-0.07973966002464294,0.17282018065452576,0.07979969680309296,0.2005469799041748,-0.1415175348520279,-0.18118609488010406,-0.04743296280503273,0.09594022482633591,-0.11057143658399582,-0.14800798892974854,0.028349244967103004,0.05697876214981079,0.04995717480778694,0.03752358630299568,-0.19894927740097046,0.03107304871082306,-0.006293539423495531,0.1505298763513565,-0.15907223522663116,-0.14650458097457886,0.1805032342672348,0.1257888823747635,-0.08093278110027313,0.16154329478740692,0.09724084287881851,-0.1159154400229454,0.06767173856496811,-0.21257677674293518,0.08853363245725632,-0.15700672566890717,0.0719379112124443,-0.08931592851877213,0.08711928129196167,0.008193692192435265,0.053680770099163055,-0.03907034173607826,0.20229081809520721,-0.14475245773792267,-0.1405562311410904,-0.15311607718467712,0.190361887216568,-0.1520792841911316,-0.13789258897304535,-0.1297125369310379,-0.08495233952999115,0.16278202831745148,0.08019451051950455,0.20856723189353943,0.008984419517219067,0.06071648374199867,-0.06322547048330307,-0.0009564667125232518,-0.024650366976857185,-0.11859829723834991,-0.10674253851175308,0.07851846516132355,-0.12498550117015839,-0.10023710131645203,0.06520561128854752,0.044836729764938354,-0.15716445446014404,0.12375880032777786,0.18294909596443176,0.10179753601551056,0.1668497920036316,0.13352176547050476,-0.09539330750703812,-0.12153419852256775,-0.021346455439925194,-0.16340802609920502,0.06168917566537857,-0.1426195353269577,-0.14686334133148193,0.13866060972213745,0.1172337755560875,-0.07432523369789124,-0.02546965517103672,-0.02411678433418274,-0.08361092954874039,0.08527408540248871,0.0038155054207891226,-0.01030509639531374,-0.1702662855386734,0.027347702533006668,0.20712044835090637,0.12883800268173218,0.23814192414283752,0.008093994110822678,-0.10933636128902435,0.011628469452261925,0.21643202006816864,0.22967316210269928,0.18079961836338043,-0.11744637787342072,0.09902521222829819,-0.1278098076581955,0.1324976533651352,-0.05237113684415817,-0.11590186506509781,-0.018284697085618973,-0.11454937607049942,-0.1277334988117218,0.16934426128864288,0.02250109612941742,0.06157168373465538,-0.08463531732559204,-0.025283126160502434,0.1155618280172348,0.02712390571832657,0.11489016562700272,0.13517813384532928,0.013236400671303272,-0.04945440962910652,-0.0284152589738369,0.07860279828310013,-0.08129012584686279,-0.1315024346113205,-0.1592945009469986,-0.14812247455120087,-0.1453254222869873,-0.01002822071313858,0.16100068390369415,-0.03587697446346283,-0.14112941920757294,-0.18241967260837555,-0.09201762825250626,-0.1261325180530548,-0.1412046253681183,0.18996930122375488,-0.031315434724092484,-0.1390700489282608,-0.1666167825460434,-0.1446777582168579,-0.1568482369184494,0.1402890980243683,-0.05989525839686394,0.0828290730714798,0.09468508511781693,0.04521734267473221,-0.11321572214365005,-0.14772239327430725,-0.07785582542419434,-0.059662554413080215,0.0941547080874443,-0.16919884085655212,-0.11218871921300888,-0.025783929973840714,0.038602083921432495,-0.095955029129982,0.07975012809038162,-0.18059077858924866,-0.11692211776971817,-0.12810683250427246,0.014223650097846985,0.1641760915517807,-0.0035797064192593098,-0.06684251874685287,0.04978111758828163,0.13697093725204468,-0.11358438432216644,-0.14677755534648895,0.022284923121333122,-0.006813933607190847,0.19909323751926422,0.06835316866636276,-0.05908052995800972,0.14288786053657532,-0.09524789452552795,-0.08100611716508865,-0.01688472554087639,-0.07291088998317719,-0.17202354967594147,-0.043991684913635254,-0.052233822643756866,0.1590350866317749,0.17393803596496582,0.058286890387535095,-0.021465767174959183,-0.07091037929058075,0.038906559348106384,0.016962062567472458,0.1720557063817978,-0.04220392927527428,-0.02826395444571972,-0.09708384424448013,0.05342929810285568,0.07182947546243668,-0.10563653707504272,0.02602319046854973,0.08373460918664932,-0.1454913318157196,0.09994646161794662,0.17065246403217316,-0.08827283978462219,0.014223873615264893,0.02401389367878437,0.09951450675725937,-0.11114302277565002,-0.12739156186580658,0.13014186918735504,0.09704601019620895,-0.13204222917556763,-0.013979845680296421,-0.15580251812934875,0.004681105725467205,0.14728695154190063,0.04066695272922516,-0.140538290143013,-0.03795371577143669,-0.0414394773542881,-0.13990801572799683]},{"bias":0.17119161784648895,"weights":[-0.08223748207092285,-0.15098898112773895,0.14507463574409485,-0.05844680964946747,0.16159360110759735,0.09828171879053116,-0.1159680187702179,-0.04968738928437233,-0.018591778352856636,-0.12191499769687653,0.06920894980430603,-0.17197343707084656,-0.07259169220924377,-0.16956809163093567,0.013971032574772835,0.06386681646108627,0.07308275997638702,0.07712372392416,-0.174303337931633,-0.0019278585677966475,-0.0584743395447731,0.15389055013656616,0.09180779755115509,0.19961650669574738,-0.14811666309833527,0.16769124567508698,-0.1731763482093811,0.15335512161254883,0.17035828530788422,-0.03457396477460861,0.15819990634918213,-0.05284005030989647,0.1206255629658699,-0.11810723692178726,-0.00007453185389749706,-0.19290921092033386,-0.1325327306985855,-0.07001502811908722,-0.07420440763235092,-0.1575014889240265,-0.158506378531456,0.11977764219045639,-0.008068487979471684,